booster[0]:
0:[f53<0.5] yes=1,no=2,missing=1
	1:[f11<7.5] yes=3,no=4,missing=3
		3:[f8<1.62607923e+09] yes=7,no=8,missing=7
			7:[f62<0.985777259] yes=15,no=16,missing=15
				15:[f23<8144] yes=31,no=32,missing=31
					31:[f37<6.56400871] yes=63,no=64,missing=63
						63:leaf=-0.0533333346
						64:leaf=-0.00727272732
					32:[f8<1.07105485e+09] yes=65,no=66,missing=65
						65:[f70<0.385714293] yes=123,no=124,missing=123
							123:[f39<234.762604] yes=209,no=210,missing=209
								209:leaf=0.079259254
								210:[f17<2.5] yes=309,no=310,missing=309
									309:leaf=0.0622222237
									310:leaf=-0.0320000015
							124:leaf=-0.0199999996
						66:[f36<0.441951841] yes=125,no=126,missing=125
							125:leaf=-0.0571428575
							126:[f65<0.230438471] yes=211,no=212,missing=211
								211:leaf=0.0649999976
								212:leaf=-0.0399999991
				16:[f114<0.5] yes=33,no=34,missing=33
					33:[f27<0.5] yes=67,no=68,missing=67
						67:leaf=0.076595746
						68:[f37<4.7036581] yes=127,no=128,missing=127
							127:leaf=-0.0509090871
							128:leaf=-0
					34:[f18<768] yes=69,no=70,missing=69
						69:leaf=-0.0748387054
						70:leaf=0.0586666651
			8:[f36<0.582654595] yes=17,no=18,missing=17
				17:[f118<0.5] yes=35,no=36,missing=35
					35:[f13<3.5] yes=71,no=72,missing=71
						71:leaf=-0.0794202909
						72:leaf=0.0199999996
					36:[f26<0.5] yes=73,no=74,missing=73
						73:[f69<0.00349650346] yes=129,no=130,missing=129
							129:[f12<26] yes=213,no=214,missing=213
								213:leaf=0.0599999987
								214:leaf=0.0218181815
							130:leaf=-0
						74:[f1<51] yes=131,no=132,missing=131
							131:leaf=0.0199999996
							132:leaf=-0.064000003
				18:[f50<0.5] yes=37,no=38,missing=37
					37:[f6<4352] yes=75,no=76,missing=75
						75:leaf=0.0717948675
						76:leaf=0.0088888891
					38:[f36<3.12932158] yes=77,no=78,missing=77
						77:leaf=-0.051764708
						78:[f4<182528] yes=133,no=134,missing=133
							133:leaf=0.0199999996
							134:leaf=-0
		4:[f105<0.5] yes=9,no=10,missing=9
			9:[f37<7.77380371] yes=19,no=20,missing=19
				19:[f62<0.754493594] yes=39,no=40,missing=39
					39:[f11<8.5] yes=79,no=80,missing=79
						79:[f26<0.5] yes=135,no=136,missing=135
							135:[f8<268500992] yes=215,no=216,missing=215
								215:[f5<1984] yes=311,no=312,missing=311
									311:[f35<0.197015166] yes=411,no=412,missing=411
										411:[f25<8192] yes=519,no=520,missing=519
											519:leaf=0.0750769228
											520:[f38<2.76509142] yes=611,no=612,missing=611
												611:leaf=0.0412121192
												612:leaf=-0.0315151513
										412:[f8<2129920] yes=521,no=522,missing=521
											521:leaf=-0
											522:leaf=-0.0711111128
									312:[f69<0.124293789] yes=413,no=414,missing=413
										413:[f6<256] yes=523,no=524,missing=523
											523:[f140<0.5] yes=613,no=614,missing=613
												613:leaf=-0.0667455643
												614:leaf=0.0218181815
											524:leaf=0.0533333346
										414:leaf=0.0660869554
								216:[f35<0.0112419995] yes=313,no=314,missing=313
									313:[f4<34816] yes=415,no=416,missing=415
										415:leaf=-0.0480000004
										416:leaf=-0
									314:leaf=-0.0791808888
							136:[f38<2.91741657] yes=217,no=218,missing=217
								217:leaf=0.0750769228
								218:leaf=0.0160000008
						80:[f21<7097152] yes=137,no=138,missing=137
							137:[f12<15.5] yes=219,no=220,missing=219
								219:[f37<7.55199909] yes=315,no=316,missing=315
									315:[f1<2.14748365e+09] yes=417,no=418,missing=417
										417:[f21<786432] yes=525,no=526,missing=525
											525:[f47<4.17740084e-05] yes=615,no=616,missing=615
												615:leaf=-0.0199999996
												616:leaf=-0.0798150972
											526:[f11<10.5] yes=617,no=618,missing=617
												617:leaf=-0.0259459447
												618:leaf=-0.0778689235
										418:leaf=0.0399999991
									316:[f42<1.02645135] yes=419,no=420,missing=419
										419:[f65<0.0408588685] yes=527,no=528,missing=527
											527:[f8<2129920] yes=619,no=620,missing=619
												619:leaf=-0.0299999993
												620:leaf=-0.0755861998
											528:leaf=0.0509090871
										420:[f12<2.5] yes=529,no=530,missing=529
											529:leaf=0.068571426
											530:leaf=-0.0199999996
								220:[f89<0.5] yes=317,no=318,missing=317
									317:[f226<0.5] yes=421,no=422,missing=421
										421:[f9<5.5] yes=531,no=532,missing=531
											531:leaf=-0.0399999991
											532:leaf=0.0160000008
										422:leaf=-0.0586666651
									318:leaf=0.0611764714
							138:leaf=0.0647619069
					40:[f13<4.5] yes=81,no=82,missing=81
						81:[f8<343932928] yes=139,no=140,missing=139
							139:[f153<0.5] yes=221,no=222,missing=221
								221:[f4<4352] yes=319,no=320,missing=319
									319:[f294<0.5] yes=423,no=424,missing=423
										423:leaf=0.0553846173
										424:leaf=-0.0509090871
									320:[f228<0.5] yes=425,no=426,missing=425
										425:[f42<3.29940176] yes=533,no=534,missing=533
											533:[f5<1899776] yes=621,no=622,missing=621
												621:leaf=0.0730769262
												622:leaf=0.0218181815
											534:leaf=-0
										426:[f155<0.5] yes=535,no=536,missing=535
											535:leaf=-0.0266666673
											536:leaf=0.0480000004
								222:leaf=-0.0671999976
							140:[f36<2.94513178] yes=223,no=224,missing=223
								223:[f10<1.5] yes=321,no=322,missing=321
									321:[f47<0.0550595224] yes=427,no=428,missing=427
										427:[f156<0.5] yes=537,no=538,missing=537
											537:[f19<38912] yes=623,no=624,missing=623
												623:leaf=-0.0199999996
												624:leaf=-0.0778378397
											538:leaf=-0
										428:[f8<1.17044019e+09] yes=539,no=540,missing=539
											539:leaf=-0.0199999996
											540:leaf=0.0444444455
									322:[f4<33536] yes=429,no=430,missing=429
										429:leaf=-0
										430:leaf=0.0533333346
								224:[f62<0.829220772] yes=323,no=324,missing=323
									323:leaf=-0.0399999991
									324:leaf=0.0649999976
						82:[f9<4.5] yes=141,no=142,missing=141
							141:leaf=0.0622222237
							142:[f236<0.5] yes=225,no=226,missing=225
								225:[f14<8] yes=325,no=326,missing=325
									325:leaf=-0.079455778
									326:[f4<101376] yes=431,no=432,missing=431
										431:leaf=-0
										432:leaf=-0.0509090871
								226:leaf=-0.0088888891
				20:[f17<2.5] yes=41,no=42,missing=41
					41:[f13<8] yes=83,no=84,missing=83
						83:[f138<0.5] yes=143,no=144,missing=143
							143:[f4<6016] yes=227,no=228,missing=227
								227:[f5<219136] yes=327,no=328,missing=327
									327:leaf=0.0480000004
									328:leaf=-0.0444444455
								228:[f5<1707264] yes=329,no=330,missing=329
									329:leaf=0.0782513618
									330:leaf=0.0199999996
							144:leaf=-0.0444444455
						84:[f28<1.5] yes=145,no=146,missing=145
							145:leaf=-0
							146:leaf=-0.0708571449
					42:[f9<5.5] yes=85,no=86,missing=85
						85:[f11<29.5] yes=147,no=148,missing=147
							147:leaf=0.0533333346
							148:leaf=-0.0199999996
						86:leaf=-0.0766666606
			10:[f13<5.5] yes=21,no=22,missing=21
				21:[f28<2.5] yes=43,no=44,missing=43
					43:[f206<0.5] yes=87,no=88,missing=87
						87:[f36<0.0230786819] yes=149,no=150,missing=149
							149:[f17<2.5] yes=229,no=230,missing=229
								229:leaf=0.0444444455
								230:leaf=-0.0266666673
							150:[f4<1088256] yes=231,no=232,missing=231
								231:[f63<0.131622955] yes=331,no=332,missing=331
									331:leaf=0.0780422688
									332:leaf=0.0199999996
								232:[f11<11.5] yes=333,no=334,missing=333
									333:leaf=0.0705882311
									334:[f35<3.73444057] yes=433,no=434,missing=433
										433:leaf=-0.0363636352
										434:leaf=0.0509090871
						88:[f8<361594880] yes=151,no=152,missing=151
							151:[f0<7.5] yes=233,no=234,missing=233
								233:[f62<0.990476191] yes=335,no=336,missing=335
									335:[f4<1682432] yes=435,no=436,missing=435
										435:[f38<3.8943696] yes=541,no=542,missing=541
											541:leaf=0.0199999996
											542:leaf=0.0766666606
										436:leaf=0.0199999996
									336:[f35<3.54461479] yes=437,no=438,missing=437
										437:leaf=0.0399999991
										438:leaf=-0.0444444455
								234:[f38<3.03808761] yes=337,no=338,missing=337
									337:leaf=0.0457142852
									338:leaf=-0.051764708
							152:[f47<0.00382710202] yes=235,no=236,missing=235
								235:leaf=0.0480000004
								236:[f31<233472] yes=339,no=340,missing=339
									339:leaf=-0
									340:[f39<312.759583] yes=439,no=440,missing=439
										439:leaf=-0.0728888884
										440:leaf=-0.0160000008
					44:[f95<0.5] yes=89,no=90,missing=89
						89:[f27<0.5] yes=153,no=154,missing=153
							153:[f4<74496] yes=237,no=238,missing=237
								237:leaf=-0
								238:leaf=0.0444444455
							154:leaf=-0.0750769228
						90:[f63<0.0433290005] yes=155,no=156,missing=155
							155:[f196<0.5] yes=239,no=240,missing=239
								239:leaf=0.0611764714
								240:leaf=-0.0266666673
							156:leaf=-0.0444444455
				22:[f28<0.5] yes=45,no=46,missing=45
					45:leaf=0.0711111128
					46:[f7<6144] yes=91,no=92,missing=91
						91:[f47<0.00108518719] yes=157,no=158,missing=157
							157:leaf=-0.0199999996
							158:leaf=-0.0793720558
						92:leaf=-0.0199999996
	2:[f15<5.5] yes=5,no=6,missing=5
		5:[f17<2.5] yes=11,no=12,missing=11
			11:[f8<735412224] yes=23,no=24,missing=23
				23:[f28<0.5] yes=47,no=48,missing=47
					47:[f25<7680000] yes=93,no=94,missing=93
						93:[f27<0.5] yes=159,no=160,missing=159
							159:[f71<0.800000012] yes=241,no=242,missing=241
								241:leaf=0.0794686452
								242:[f0<3.5] yes=341,no=342,missing=341
									341:leaf=-0.0199999996
									342:leaf=0.0480000004
							160:[f186<0.5] yes=243,no=244,missing=243
								243:[f64<0.555555582] yes=343,no=344,missing=343
									343:[f90<0.5] yes=441,no=442,missing=441
										441:[f70<0.25575614] yes=543,no=544,missing=543
											543:[f25<6066176] yes=625,no=626,missing=625
												625:leaf=0.0782617852
												626:leaf=0.0266666673
											544:[f38<4.77518129] yes=627,no=628,missing=627
												627:leaf=0.0676923096
												628:leaf=-0.0320000015
										442:leaf=0.0088888891
									344:[f37<6.03010559] yes=443,no=444,missing=443
										443:[f42<0.999429345] yes=545,no=546,missing=545
											545:[f37<5.60255337] yes=629,no=630,missing=629
												629:leaf=-0.0266666673
												630:leaf=0.037894737
											546:leaf=-0.0611764714
										444:[f11<7] yes=547,no=548,missing=547
											547:[f37<7.43010139] yes=631,no=632,missing=631
												631:leaf=-0
												632:leaf=0.0399999991
											548:leaf=0.0767010301
								244:[f10<0.5] yes=345,no=346,missing=345
									345:[f70<0.085136041] yes=445,no=446,missing=445
										445:[f25<2553856] yes=549,no=550,missing=549
											549:[f38<2.50827098] yes=633,no=634,missing=633
												633:leaf=0.0088888891
												634:leaf=0.0781395286
											550:leaf=0.00727272732
										446:[f70<0.0855647177] yes=551,no=552,missing=551
											551:[f38<4.26882172] yes=635,no=636,missing=635
												635:leaf=-0.0353488363
												636:leaf=0.0444444455
											552:[f116<0.5] yes=637,no=638,missing=637
												637:leaf=0.0748051926
												638:leaf=0.0529577434
									346:[f119<0.5] yes=447,no=448,missing=447
										447:leaf=0.068571426
										448:leaf=-0.0717948675
						94:[f31<7642112] yes=161,no=162,missing=161
							161:[f255<0.5] yes=245,no=246,missing=245
								245:[f149<0.5] yes=347,no=348,missing=347
									347:[f25<7841792] yes=449,no=450,missing=449
										449:leaf=0.0199999996
										450:[f40<58397192] yes=553,no=554,missing=553
											553:leaf=0.0780408159
											554:leaf=0.0199999996
									348:leaf=0.0088888891
								246:[f5<409600] yes=349,no=350,missing=349
									349:[f36<5.93573046] yes=451,no=452,missing=451
										451:leaf=0.0266666673
										452:leaf=-0.0160000008
									350:leaf=-0.0444444455
							162:[f6<258048] yes=247,no=248,missing=247
								247:[f37<7.77889729] yes=351,no=352,missing=351
									351:[f39<42.5086594] yes=453,no=454,missing=453
										453:leaf=-0.0725581422
										454:leaf=-0.0199999996
									352:leaf=0.0199999996
								248:[f42<3.61759019] yes=353,no=354,missing=353
									353:leaf=0.0654545426
									354:leaf=-0.0480000004
					48:[f27<0.5] yes=95,no=96,missing=95
						95:[f20<768] yes=163,no=164,missing=163
							163:[f25<1134592] yes=249,no=250,missing=249
								249:[f32<6400] yes=355,no=356,missing=355
									355:[f11<29.5] yes=455,no=456,missing=455
										455:[f5<3328] yes=555,no=556,missing=555
											555:[f39<65.4369507] yes=639,no=640,missing=639
												639:leaf=0.00533333328
												640:leaf=-0.055999998
											556:leaf=0.0599999987
										456:leaf=0.0666666627
									356:[f25<77824] yes=457,no=458,missing=457
										457:[f37<3.57059717] yes=557,no=558,missing=557
											557:leaf=-0.0509090871
											558:[f42<0.973640084] yes=641,no=642,missing=641
												641:leaf=0.0452173874
												642:leaf=0.075966388
										458:[f38<4.22779226] yes=559,no=560,missing=559
											559:[f11<64] yes=643,no=644,missing=643
												643:leaf=0.0524999984
												644:leaf=-0.0088888891
											560:[f37<7.33031893] yes=645,no=646,missing=645
												645:leaf=-0.0521739125
												646:leaf=0.0628571436
								250:[f50<0.5] yes=357,no=358,missing=357
									357:[f37<5.93837643] yes=459,no=460,missing=459
										459:[f40<26928852] yes=561,no=562,missing=561
											561:leaf=0.0088888891
											562:leaf=-0.0586666651
										460:[f11<64] yes=563,no=564,missing=563
											563:leaf=0.0599999987
											564:leaf=-0
									358:leaf=-0.074666664
							164:[f138<0.5] yes=251,no=252,missing=251
								251:[f36<0.0184007995] yes=359,no=360,missing=359
									359:[f0<3.5] yes=461,no=462,missing=461
										461:[f42<0.852155089] yes=565,no=566,missing=565
											565:[f38<3.26023889] yes=647,no=648,missing=647
												647:leaf=-0.0160000008
												648:leaf=0.0399999991
											566:[f39<369.743774] yes=649,no=650,missing=649
												649:leaf=-0
												650:leaf=-0.0571428575
										462:leaf=0.0715789422
									360:[f233<0.5] yes=463,no=464,missing=463
										463:[f34<8679936] yes=567,no=568,missing=567
											567:[f2<232] yes=651,no=652,missing=651
												651:leaf=0.0782365128
												652:leaf=-0.0184615385
											568:[f30<768] yes=653,no=654,missing=653
												653:leaf=-0.0622222237
												654:leaf=0.0628571436
										464:[f86<0.5] yes=569,no=570,missing=569
											569:leaf=0.0634482726
											570:leaf=-0.055999998
								252:[f149<0.5] yes=361,no=362,missing=361
									361:leaf=0.064000003
									362:[f38<5.97692633] yes=465,no=466,missing=465
										465:[f47<0.0186396316] yes=571,no=572,missing=571
											571:leaf=0.0399999991
											572:leaf=-0.0734246597
										466:leaf=0.0363636352
						96:[f37<6.51917315] yes=165,no=166,missing=165
							165:[f52<0.5] yes=253,no=254,missing=253
								253:leaf=0.0628571436
								254:[f6<1024] yes=363,no=364,missing=363
									363:[f11<6.5] yes=467,no=468,missing=467
										467:leaf=0.051764708
										468:[f66<0.0142857144] yes=573,no=574,missing=573
											573:[f140<0.5] yes=655,no=656,missing=655
												655:leaf=-0.0622222237
												656:leaf=-0.0180645157
											574:[f9<5.5] yes=657,no=658,missing=657
												657:leaf=0.0399999991
												658:leaf=-0.0199999996
									364:[f6<241664] yes=469,no=470,missing=469
										469:leaf=0.0622222237
										470:leaf=-0.0199999996
							166:[f69<0.164665997] yes=255,no=256,missing=255
								255:[f12<6] yes=365,no=366,missing=365
									365:[f22<6144] yes=471,no=472,missing=471
										471:[f4<1451520] yes=575,no=576,missing=575
											575:[f37<6.64191437] yes=659,no=660,missing=659
												659:leaf=0.0156213017
												660:leaf=0.0572031625
											576:[f38<4.90263939] yes=661,no=662,missing=661
												661:leaf=-0.0327868834
												662:leaf=0.0495238118
										472:leaf=-0.0676923096
									366:[f9<4.5] yes=473,no=474,missing=473
										473:[f239<0.5] yes=577,no=578,missing=577
											577:leaf=0.068571426
											578:leaf=-0.0160000008
										474:[f30<5376] yes=579,no=580,missing=579
											579:[f37<6.59364176] yes=663,no=664,missing=663
												663:leaf=-0
												664:leaf=-0.0659199953
											580:[f4<1353472] yes=665,no=666,missing=665
												665:leaf=-0
												666:leaf=0.0533333346
								256:[f13<5.5] yes=367,no=368,missing=367
									367:[f25<1398784] yes=475,no=476,missing=475
										475:[f70<0.151468277] yes=581,no=582,missing=581
											581:[f69<0.424845695] yes=667,no=668,missing=667
												667:leaf=0.0771623477
												668:leaf=0.0399999991
											582:[f37<6.59965897] yes=669,no=670,missing=669
												669:leaf=-0.0199999996
												670:leaf=0.0553846173
										476:[f92<0.5] yes=583,no=584,missing=583
											583:[f36<5.09998035] yes=671,no=672,missing=671
												671:leaf=-0.0509090871
												672:leaf=0.0199999996
											584:[f262<0.5] yes=673,no=674,missing=673
												673:leaf=-0.0199999996
												674:leaf=0.068965517
									368:[f71<0.00534759369] yes=477,no=478,missing=477
										477:leaf=-0.0399999991
										478:leaf=-0
				24:[f28<0.5] yes=49,no=50,missing=49
					49:[f27<0.5] yes=97,no=98,missing=97
						97:[f158<0.5] yes=167,no=168,missing=167
							167:leaf=0.074529916
							168:[f213<0.5] yes=257,no=258,missing=257
								257:[f4<105984] yes=369,no=370,missing=369
									369:leaf=-0.0399999991
									370:leaf=-0
								258:leaf=0.0611764714
						98:[f35<3.29068518] yes=169,no=170,missing=169
							169:[f0<5.5] yes=259,no=260,missing=259
								259:leaf=0.0444444455
								260:leaf=-0
							170:leaf=-0.0509090871
					50:[f29<0.5] yes=99,no=100,missing=99
						99:[f157<0.5] yes=171,no=172,missing=171
							171:[f51<0.5] yes=261,no=262,missing=261
								261:[f42<6.39693356] yes=371,no=372,missing=371
									371:[f42<0.971782446] yes=479,no=480,missing=479
										479:leaf=0.0509090871
										480:[f47<0.669491708] yes=585,no=586,missing=585
											585:[f39<86.8599319] yes=675,no=676,missing=675
												675:leaf=-0.0696659237
												676:leaf=-0.0355555564
											586:leaf=0.0218181815
									372:leaf=0.0553846173
								262:leaf=0.0571428575
							172:[f4<202752] yes=263,no=264,missing=263
								263:leaf=0.0586666651
								264:leaf=-0
						100:[f62<0.362943679] yes=173,no=174,missing=173
							173:[f5<17920] yes=265,no=266,missing=265
								265:leaf=-0
								266:leaf=-0.0509090871
							174:[f6<2048] yes=267,no=268,missing=267
								267:leaf=0.0717948675
								268:leaf=0.0199999996
			12:[f28<0.5] yes=25,no=26,missing=25
				25:[f37<6.7151556] yes=51,no=52,missing=51
					51:[f25<6] yes=101,no=102,missing=101
						101:[f5<190464] yes=175,no=176,missing=175
							175:[f11<9.5] yes=269,no=270,missing=269
								269:[f47<0.00158087153] yes=373,no=374,missing=373
									373:leaf=0.0199999996
									374:[f35<2.89261675] yes=481,no=482,missing=481
										481:[f204<0.5] yes=587,no=588,missing=587
											587:leaf=-0.0761904716
											588:leaf=-0.0160000008
										482:leaf=-0
								270:[f4<97536] yes=375,no=376,missing=375
									375:leaf=0.0480000004
									376:leaf=-0.0320000015
							176:[f124<0.5] yes=271,no=272,missing=271
								271:[f6<2816] yes=377,no=378,missing=377
									377:[f37<6.41127062] yes=483,no=484,missing=483
										483:leaf=-0.0088888891
										484:leaf=0.0444444455
									378:leaf=-0.0571428575
								272:leaf=0.0717948675
						102:[f35<2.25186372] yes=177,no=178,missing=177
							177:[f153<0.5] yes=273,no=274,missing=273
								273:[f8<151224320] yes=379,no=380,missing=379
									379:[f211<0.5] yes=485,no=486,missing=485
										485:[f70<0.216617644] yes=589,no=590,missing=589
											589:[f27<0.5] yes=677,no=678,missing=677
												677:leaf=0.0604081601
												678:leaf=0.00470588217
											590:leaf=-0.0266666673
										486:[f69<0.0104655717] yes=591,no=592,missing=591
											591:[f26<0.5] yes=679,no=680,missing=679
												679:leaf=0.0571428575
												680:leaf=-0.0307692308
											592:leaf=-0.0480000004
									380:leaf=-0.0480000004
								274:leaf=0.0779487193
							178:[f4<75776] yes=275,no=276,missing=275
								275:[f66<0.899082541] yes=381,no=382,missing=381
									381:[f217<0.5] yes=487,no=488,missing=487
										487:[f35<2.52476192] yes=593,no=594,missing=593
											593:leaf=0.0199999996
											594:leaf=0.0715789422
										488:leaf=-0.0199999996
									382:leaf=-0.0199999996
								276:[f120<0.5] yes=383,no=384,missing=383
									383:[f70<0.00678733038] yes=489,no=490,missing=489
										489:[f30<11008] yes=595,no=596,missing=595
											595:leaf=0.0509090871
											596:leaf=-0.0480000004
										490:leaf=-0.064000003
									384:[f5<210176] yes=491,no=492,missing=491
										491:leaf=0.0509090871
										492:leaf=-0.0199999996
					52:[f4<6067712] yes=103,no=104,missing=103
						103:[f297<0.5] yes=179,no=180,missing=179
							179:[f63<0.120894164] yes=277,no=278,missing=277
								277:leaf=0.0788059682
								278:leaf=0.0160000008
							180:leaf=0.0088888891
						104:leaf=-0.0160000008
				26:[f37<6.54056454] yes=53,no=54,missing=53
					53:[f47<4.41891279e-05] yes=105,no=106,missing=105
						105:leaf=0.0480000004
						106:[f2<232] yes=181,no=182,missing=181
							181:[f25<6144] yes=279,no=280,missing=279
								279:leaf=0.0509090871
								280:[f47<0.361111104] yes=385,no=386,missing=385
									385:[f174<0.5] yes=493,no=494,missing=493
										493:[f5<2304] yes=597,no=598,missing=597
											597:[f38<3.2454977] yes=681,no=682,missing=681
												681:leaf=0.0320000015
												682:leaf=-0.0562962964
											598:[f101<0.5] yes=683,no=684,missing=683
												683:leaf=-0.0697872341
												684:leaf=-0.0225641038
										494:leaf=0.0399999991
									386:[f5<29696] yes=495,no=496,missing=495
										495:leaf=0.0509090871
										496:leaf=-0.0199999996
							182:[f14<23] yes=281,no=282,missing=281
								281:[f294<0.5] yes=387,no=388,missing=387
									387:leaf=-0.0788719133
									388:[f89<0.5] yes=497,no=498,missing=497
										497:leaf=0.0160000008
										498:leaf=-0.0571428575
								282:leaf=-0
					54:[f27<0.5] yes=107,no=108,missing=107
						107:[f21<1572864] yes=183,no=184,missing=183
							183:[f9<5.5] yes=283,no=284,missing=283
								283:[f64<0.5] yes=389,no=390,missing=389
									389:[f228<0.5] yes=499,no=500,missing=499
										499:leaf=0.078714855
										500:[f37<6.6028614] yes=599,no=600,missing=599
											599:leaf=-0.0160000008
											600:leaf=0.0480000004
									390:leaf=-0.0320000015
								284:leaf=-0.0509090871
							184:[f5<2133504] yes=285,no=286,missing=285
								285:leaf=-0.064000003
								286:leaf=0.0199999996
						108:[f32<25190.4004] yes=185,no=186,missing=185
							185:[f37<6.64260101] yes=287,no=288,missing=287
								287:leaf=-0.0218181815
								288:leaf=0.0571428575
							186:[f42<2.2554245] yes=289,no=290,missing=289
								289:[f70<0.329323113] yes=391,no=392,missing=391
									391:[f71<0.0542454794] yes=501,no=502,missing=501
										501:leaf=-0.0751515105
										502:leaf=-0.0199999996
									392:leaf=-0.0199999996
								290:leaf=-0.0088888891
		6:[f28<0.5] yes=13,no=14,missing=13
			13:[f37<6.2887888] yes=27,no=28,missing=27
				27:[f0<3.5] yes=55,no=56,missing=55
					55:[f4<8192] yes=109,no=110,missing=109
						109:leaf=-0
						110:[f32<433664] yes=187,no=188,missing=187
							187:leaf=0.0654545426
							188:leaf=-0
					56:[f42<1.01330924] yes=111,no=112,missing=111
						111:[f37<6.09195805] yes=189,no=190,missing=189
							189:leaf=-0.0740740746
							190:leaf=-0.0199999996
						112:[f42<1.09054422] yes=191,no=192,missing=191
							191:leaf=0.0480000004
							192:leaf=-0.0533333346
				28:[f303<0.5] yes=57,no=58,missing=57
					57:[f30<17152] yes=113,no=114,missing=113
						113:[f4<10889216] yes=193,no=194,missing=193
							193:leaf=0.0793130323
							194:leaf=0.0199999996
						114:[f27<0.5] yes=195,no=196,missing=195
							195:leaf=0.0671999976
							196:leaf=-0.0444444455
					58:leaf=-0.0399999991
			14:[f299<0.5] yes=29,no=30,missing=29
				29:[f22<6144] yes=59,no=60,missing=59
					59:[f37<7.32380104] yes=115,no=116,missing=115
						115:[f27<0.5] yes=197,no=198,missing=197
							197:[f50<0.5] yes=291,no=292,missing=291
								291:[f11<31] yes=393,no=394,missing=393
									393:[f222<0.5] yes=503,no=504,missing=503
										503:[f25<67584] yes=601,no=602,missing=601
											601:[f31<4096] yes=685,no=686,missing=685
												685:leaf=0.0199999996
												686:leaf=-0.0707437992
											602:[f17<2.5] yes=687,no=688,missing=687
												687:leaf=0.0320000015
												688:leaf=-0.0480000004
										504:[f239<0.5] yes=603,no=604,missing=603
											603:[f37<6.24284172] yes=689,no=690,missing=689
												689:leaf=-0.0240000002
												690:leaf=0.067368418
											604:[f38<5.04324627] yes=691,no=692,missing=691
												691:leaf=-0.055999998
												692:leaf=0.0266666673
									394:[f39<53.348175] yes=505,no=506,missing=505
										505:[f4<262400] yes=605,no=606,missing=605
											605:leaf=0.0160000008
											606:leaf=-0.0533333346
										506:[f17<2.5] yes=607,no=608,missing=607
											607:[f5<165888] yes=693,no=694,missing=693
												693:leaf=0.0503703691
												694:leaf=-0
											608:[f26<0.5] yes=695,no=696,missing=695
												695:leaf=-0.0160000008
												696:leaf=0.0480000004
								292:leaf=0.0740740746
							198:[f52<0.5] yes=293,no=294,missing=293
								293:leaf=0.0444444455
								294:[f42<2.49414825] yes=395,no=396,missing=395
									395:[f47<0.319113672] yes=507,no=508,missing=507
										507:[f12<22] yes=609,no=610,missing=609
											609:[f37<6.73736382] yes=697,no=698,missing=697
												697:leaf=-0.0777711421
												698:leaf=-0.0520634912
											610:leaf=-0.0088888891
										508:leaf=-0
									396:leaf=0.0199999996
						116:[f113<0.5] yes=199,no=200,missing=199
							199:[f17<1.5] yes=295,no=296,missing=295
								295:leaf=-0.0480000004
								296:[f40<667953.375] yes=397,no=398,missing=397
									397:[f4<50688] yes=509,no=510,missing=509
										509:leaf=-0
										510:leaf=0.0399999991
									398:[f19<12492800] yes=511,no=512,missing=511
										511:leaf=0.0766896531
										512:leaf=0.0199999996
							200:leaf=-0.0581818186
					60:[f183<0.5] yes=117,no=118,missing=117
						117:[f30<65024] yes=201,no=202,missing=201
							201:[f47<4.93416992e-05] yes=297,no=298,missing=297
								297:leaf=-0
								298:[f35<6.24414062] yes=399,no=400,missing=399
									399:leaf=-0.0796837062
									400:leaf=-0.0199999996
							202:leaf=-0
						118:[f47<0.00341694942] yes=203,no=204,missing=203
							203:leaf=0.0761904716
							204:[f12<12.5] yes=299,no=300,missing=299
								299:[f47<0.00365452841] yes=401,no=402,missing=401
									401:leaf=-0.0199999996
									402:leaf=-0.0747540966
								300:leaf=0.0160000008
				30:[f52<0.5] yes=61,no=62,missing=61
					61:[f13<3.5] yes=119,no=120,missing=119
						119:[f39<374.830017] yes=205,no=206,missing=205
							205:[f4<3476736] yes=301,no=302,missing=301
								301:leaf=0.0782679319
								302:leaf=0.0199999996
							206:[f39<376.259277] yes=303,no=304,missing=303
								303:leaf=-0.0399999991
								304:leaf=0.0622222237
						120:leaf=-0.0533333346
					62:[f27<0.5] yes=121,no=122,missing=121
						121:leaf=0.0611764714
						122:[f12<15.5] yes=207,no=208,missing=207
							207:[f70<0.0329308882] yes=305,no=306,missing=305
								305:[f5<136960] yes=403,no=404,missing=403
									403:[f69<0.0523132421] yes=513,no=514,missing=513
										513:leaf=-0.0739622638
										514:leaf=-0
									404:[f4<1244928] yes=515,no=516,missing=515
										515:leaf=0.055999998
										516:leaf=-0.0480000004
								306:[f28<3.5] yes=405,no=406,missing=405
									405:leaf=-0.0775757581
									406:leaf=-0.0218181815
							208:[f38<5.27111626] yes=307,no=308,missing=307
								307:[f19<1505280] yes=407,no=408,missing=407
									407:[f25<151552] yes=517,no=518,missing=517
										517:leaf=-0.0444444455
										518:leaf=0.043076925
									408:leaf=-0.0676923096
								308:[f148<0.5] yes=409,no=410,missing=409
									409:leaf=-0.0199999996
									410:leaf=0.0622222237
booster[1]:
0:[f53<0.5] yes=1,no=2,missing=1
	1:[f11<7.5] yes=3,no=4,missing=3
		3:[f8<1.62607923e+09] yes=7,no=8,missing=7
			7:[f62<0.99010092] yes=15,no=16,missing=15
				15:[f23<8144] yes=31,no=32,missing=31
					31:[f0<5.5] yes=63,no=64,missing=63
						63:leaf=0.0272420216
						64:leaf=-0.0470634848
					32:[f8<1.08475187e+09] yes=65,no=66,missing=65
						65:[f16<1.5] yes=125,no=126,missing=125
							125:[f36<0.0184007995] yes=211,no=212,missing=211
								211:[f0<4] yes=289,no=290,missing=289
									289:leaf=-0.00901787542
									290:leaf=0.0520190671
								212:[f37<2.72859192] yes=291,no=292,missing=291
									291:leaf=0.0249279998
									292:leaf=0.0764013529
							126:[f0<5.5] yes=213,no=214,missing=213
								213:leaf=0.0463146046
								214:leaf=-0.0101391971
						66:[f36<0.441951841] yes=127,no=128,missing=127
							127:leaf=-0.0583218597
							128:[f69<0.418095469] yes=215,no=216,missing=215
								215:leaf=0.0686260983
								216:leaf=-0.0136730652
				16:[f196<0.5] yes=33,no=34,missing=33
					33:[f27<0.5] yes=67,no=68,missing=67
						67:leaf=0.0748507828
						68:[f37<4.6690526] yes=129,no=130,missing=129
							129:leaf=-0.0496339612
							130:leaf=0.00908282585
					34:[f11<5.5] yes=69,no=70,missing=69
						69:leaf=-0.0721702054
						70:leaf=0.0568457358
			8:[f36<0.596497059] yes=17,no=18,missing=17
				17:[f118<0.5] yes=35,no=36,missing=35
					35:[f37<7.33690166] yes=71,no=72,missing=71
						71:[f37<4.81063747] yes=131,no=132,missing=131
							131:leaf=-0.0253624152
							132:leaf=-0.0763770938
						72:leaf=-0.0249245092
					36:[f26<0.5] yes=73,no=74,missing=73
						73:[f19<131072] yes=133,no=134,missing=133
							133:leaf=0.0152616268
							134:leaf=0.0569964573
						74:[f39<34.0024567] yes=135,no=136,missing=135
							135:leaf=-0.0635639504
							136:leaf=0.00919332076
				18:[f50<0.5] yes=37,no=38,missing=37
					37:[f65<0.0283422787] yes=75,no=76,missing=75
						75:leaf=0.0677163675
						76:leaf=0.00813484844
					38:[f62<0.875] yes=77,no=78,missing=77
						77:[f30<1792] yes=137,no=138,missing=137
							137:leaf=0.0445009843
							138:leaf=-0.0265278071
						78:leaf=-0.0558936596
		4:[f62<0.784668803] yes=9,no=10,missing=9
			9:[f37<7.77891254] yes=19,no=20,missing=19
				19:[f277<0.5] yes=39,no=40,missing=39
					39:[f21<786432] yes=79,no=80,missing=79
						79:[f24<6144] yes=139,no=140,missing=139
							139:[f8<2129920] yes=217,no=218,missing=217
								217:[f28<0.5] yes=293,no=294,missing=293
									293:leaf=0.0524016656
									294:[f0<5.5] yes=385,no=386,missing=385
										385:[f4<1472] yes=473,no=474,missing=473
											473:leaf=-0.0598144084
											474:leaf=0.0456216708
										386:[f38<5.74766541] yes=475,no=476,missing=475
											475:leaf=-0.0740817487
											476:leaf=-0.0076782601
								218:[f38<0.943174839] yes=295,no=296,missing=295
									295:leaf=-0.0249159541
									296:leaf=-0.0768652484
							140:[f0<7] yes=219,no=220,missing=219
								219:leaf=-0.048928041
								220:leaf=0.0484800562
						80:[f69<0.0450282991] yes=141,no=142,missing=141
							141:[f11<10.5] yes=221,no=222,missing=221
								221:[f5<1848] yes=297,no=298,missing=297
									297:[f38<2.86893749] yes=387,no=388,missing=387
										387:[f42<0.771658778] yes=477,no=478,missing=477
											477:[f37<4.80470991] yes=569,no=570,missing=569
												569:leaf=0.0260001924
												570:leaf=-0.0477575287
											478:[f37<4.75623035] yes=571,no=572,missing=571
												571:leaf=0.0248454884
												572:leaf=0.0701879039
										388:[f42<0.987183034] yes=479,no=480,missing=479
											479:[f47<0.024323035] yes=573,no=574,missing=573
												573:leaf=0.00693640811
												574:leaf=-0.0687917322
											480:[f27<0.5] yes=575,no=576,missing=575
												575:leaf=0.0675165579
												576:leaf=-0.00818974059
									298:[f0<3.5] yes=389,no=390,missing=389
										389:[f14<0.5] yes=481,no=482,missing=481
											481:[f41<0.5] yes=577,no=578,missing=577
												577:leaf=0.0580711626
												578:leaf=-0.0735104382
											482:[f40<18787.9414] yes=579,no=580,missing=579
												579:leaf=0.016624352
												580:leaf=0.066312775
										390:[f8<269516800] yes=483,no=484,missing=483
											483:[f0<5.5] yes=581,no=582,missing=581
												581:leaf=0.0704447478
												582:leaf=-0.00747518567
											484:[f66<0.109929077] yes=583,no=584,missing=583
												583:leaf=-0.0652735755
												584:leaf=0.0371712223
								222:[f38<5.74497128] yes=299,no=300,missing=299
									299:[f208<0.5] yes=391,no=392,missing=391
										391:[f38<1.40155232] yes=485,no=486,missing=485
											485:leaf=0.0311523862
											486:[f36<5.27837467] yes=585,no=586,missing=585
												585:leaf=-0.0757143348
												586:leaf=-0.0163233709
										392:[f62<0.698901057] yes=487,no=488,missing=487
											487:leaf=-0.0249385796
											488:leaf=0.0520907305
									300:[f30<6656] yes=393,no=394,missing=393
										393:leaf=0.0689014047
										394:leaf=-0.059647195
							142:[f13<7] yes=223,no=224,missing=223
								223:[f42<1.03450286] yes=301,no=302,missing=301
									301:[f156<0.5] yes=395,no=396,missing=395
										395:[f9<5.5] yes=489,no=490,missing=489
											489:[f162<0.5] yes=587,no=588,missing=587
												587:leaf=0.0565594696
												588:leaf=-0.0381360911
											490:[f173<0.5] yes=589,no=590,missing=589
												589:leaf=-0.051386755
												590:leaf=0.0271284748
										396:[f62<0.432661027] yes=491,no=492,missing=491
											491:[f159<0.5] yes=591,no=592,missing=591
												591:leaf=-0.0521771759
												592:leaf=0.0321135744
											492:[f38<3.59667063] yes=593,no=594,missing=593
												593:leaf=0.0132596847
												594:leaf=0.072704576
									302:leaf=0.0750325918
								224:[f27<0.5] yes=303,no=304,missing=303
									303:leaf=0.0432480089
									304:leaf=-0.0747902319
					40:[f21<655360] yes=81,no=82,missing=81
						81:leaf=-0.0728373975
						82:[f71<0.0877816379] yes=143,no=144,missing=143
							143:leaf=0.0734751895
							144:leaf=-0.0253453609
				20:[f17<2.5] yes=41,no=42,missing=41
					41:[f13<9] yes=83,no=84,missing=83
						83:[f193<0.5] yes=145,no=146,missing=145
							145:[f4<6016] yes=225,no=226,missing=225
								225:[f5<183808] yes=305,no=306,missing=305
									305:leaf=0.0431340672
									306:leaf=-0.0434688739
								226:[f28<1.5] yes=307,no=308,missing=307
									307:leaf=0.0753002241
									308:leaf=0.0208043531
							146:leaf=-0.0469474159
						84:[f28<1.5] yes=147,no=148,missing=147
							147:leaf=-0
							148:leaf=-0.068669349
					42:[f13<3] yes=85,no=86,missing=85
						85:[f35<0.0489739403] yes=149,no=150,missing=149
							149:leaf=-0.00931904837
							150:leaf=0.0469358042
						86:leaf=-0.072799854
			10:[f13<3] yes=21,no=22,missing=21
				21:[f28<2.5] yes=43,no=44,missing=43
					43:[f49<0.5] yes=87,no=88,missing=87
						87:[f64<0.03125] yes=151,no=152,missing=151
							151:[f0<7.5] yes=227,no=228,missing=227
								227:[f66<0.00306748459] yes=309,no=310,missing=309
									309:[f108<0.5] yes=397,no=398,missing=397
										397:[f37<5.75278664] yes=493,no=494,missing=493
											493:[f8<444071936] yes=595,no=596,missing=595
												595:leaf=0.0494700596
												596:leaf=-0.0263470802
											494:[f17<2.5] yes=597,no=598,missing=597
												597:leaf=0.0743013397
												598:leaf=0.0523071215
										398:leaf=0.00704334443
									310:[f0<4.5] yes=399,no=400,missing=399
										399:leaf=0.0427683406
										400:leaf=-0.0490960106
								228:[f153<0.5] yes=311,no=312,missing=311
									311:leaf=0.060946025
									312:[f42<1.10577655] yes=401,no=402,missing=401
										401:[f37<6.7127037] yes=495,no=496,missing=495
											495:leaf=-0.0631627664
											496:leaf=0.00747582084
										402:leaf=0.0270584393
							152:leaf=-0.060207285
						88:leaf=-0.0614036508
					44:[f69<0.0122704003] yes=89,no=90,missing=89
						89:[f208<0.5] yes=153,no=154,missing=153
							153:[f27<0.5] yes=229,no=230,missing=229
								229:[f42<1.01373458] yes=313,no=314,missing=313
									313:leaf=0.0522007085
									314:leaf=-0.00943447091
								230:leaf=-0.0749173611
							154:[f95<0.5] yes=231,no=232,missing=231
								231:leaf=0.0571148396
								232:leaf=-0.00892374571
						90:[f113<0.5] yes=155,no=156,missing=155
							155:leaf=0.0711622536
							156:[f74<0.5] yes=233,no=234,missing=233
								233:[f69<0.0187062938] yes=315,no=316,missing=315
									315:leaf=-0.00844806805
									316:leaf=-0.05565143
								234:leaf=0.0495882556
				22:[f20<3072] yes=45,no=46,missing=45
					45:[f28<0.5] yes=91,no=92,missing=91
						91:[f35<2.69834709] yes=157,no=158,missing=157
							157:leaf=0.00933209341
							158:leaf=-0.0480496958
						92:[f71<0.132704407] yes=159,no=160,missing=159
							159:leaf=-0.076382257
							160:leaf=-0.0249237437
					46:leaf=0.0584795326
	2:[f15<5.5] yes=5,no=6,missing=5
		5:[f17<2.5] yes=11,no=12,missing=11
			11:[f8<735412224] yes=23,no=24,missing=23
				23:[f28<0.5] yes=47,no=48,missing=47
					47:[f25<7680000] yes=93,no=94,missing=93
						93:[f27<0.5] yes=161,no=162,missing=161
							161:[f71<0.800000012] yes=235,no=236,missing=235
								235:[f70<0.595977068] yes=317,no=318,missing=317
									317:leaf=0.0764172524
									318:[f49<0.5] yes=403,no=404,missing=403
										403:[f12<9] yes=497,no=498,missing=497
											497:leaf=0.0718913078
											498:leaf=0.0245744586
										404:leaf=-0.0384239703
								236:[f5<341504] yes=319,no=320,missing=319
									319:leaf=0.0471342206
									320:leaf=-0.0090502752
							162:[f70<0.0759677365] yes=237,no=238,missing=237
								237:[f34<1747200] yes=321,no=322,missing=321
									321:[f181<0.5] yes=405,no=406,missing=405
										405:[f8<176160768] yes=499,no=500,missing=499
											499:[f32<538624] yes=599,no=600,missing=599
												599:leaf=0.075807631
												600:leaf=0.024956366
											500:[f5<11520] yes=601,no=602,missing=601
												601:leaf=0.00808739383
												602:leaf=0.0427424982
										406:leaf=0.00807786174
									322:[f25<4096] yes=407,no=408,missing=407
										407:[f42<0.999644697] yes=501,no=502,missing=501
											501:leaf=-0.0417132452
											502:leaf=0.0255814232
										408:[f70<0.0681945309] yes=503,no=504,missing=503
											503:[f101<0.5] yes=603,no=604,missing=603
												603:leaf=0.0693293586
												604:leaf=0.0215368532
											504:leaf=-0.0134121571
								238:[f171<0.5] yes=323,no=324,missing=323
									323:[f14<0.5] yes=409,no=410,missing=409
										409:[f31<15616] yes=505,no=506,missing=505
											505:leaf=0.0286540855
											506:[f301<0.5] yes=605,no=606,missing=605
												605:leaf=0.0754387528
												606:leaf=0.058332596
										410:leaf=0.00534999883
									324:[f39<1.59715247] yes=411,no=412,missing=411
										411:[f307<0.5] yes=507,no=508,missing=507
											507:leaf=0.0532748848
											508:leaf=-0.067310743
										412:[f47<0.815119624] yes=509,no=510,missing=509
											509:leaf=0.0699991658
											510:[f31<302080] yes=607,no=608,missing=607
												607:leaf=-0.0266390406
												608:leaf=0.0590034313
						94:[f4<7574016] yes=163,no=164,missing=163
							163:[f287<0.5] yes=239,no=240,missing=239
								239:[f149<0.5] yes=325,no=326,missing=325
									325:[f27<0.5] yes=413,no=414,missing=413
										413:leaf=0.0750408694
										414:[f11<7] yes=511,no=512,missing=511
											511:leaf=-0.000798122666
											512:leaf=0.0591154806
									326:leaf=-0.00886577647
								240:leaf=-0.0437834337
							164:[f47<0.00971389189] yes=241,no=242,missing=241
								241:[f37<6.14520597] yes=327,no=328,missing=327
									327:leaf=-0.0581353456
									328:[f42<3.64029694] yes=415,no=416,missing=415
										415:leaf=0.0625429973
										416:leaf=-0.00898961816
								242:[f31<8256512] yes=329,no=330,missing=329
									329:leaf=0.00788649824
									330:leaf=-0.070248507
					48:[f27<0.5] yes=95,no=96,missing=95
						95:[f20<768] yes=165,no=166,missing=165
							165:[f25<1134592] yes=243,no=244,missing=243
								243:[f37<7.29362965] yes=331,no=332,missing=331
									331:[f38<4.23355579] yes=417,no=418,missing=417
										417:[f37<3.33662081] yes=513,no=514,missing=513
											513:leaf=-0.0590684786
											514:[f40<99239.7031] yes=609,no=610,missing=609
												609:leaf=0.00731575396
												610:leaf=0.052049078
										418:[f5<29696] yes=515,no=516,missing=515
											515:[f37<6.5467205] yes=611,no=612,missing=611
												611:leaf=0.00841583963
												612:leaf=-0.0679003894
											516:[f42<0.995778084] yes=613,no=614,missing=613
												613:leaf=0.0143047385
												614:leaf=0.0587379076
									332:[f42<0.990502834] yes=419,no=420,missing=419
										419:leaf=0.00822728593
										420:leaf=0.0731015652
								244:[f50<0.5] yes=333,no=334,missing=333
									333:[f37<5.93849659] yes=421,no=422,missing=421
										421:[f37<5.32053471] yes=517,no=518,missing=517
											517:leaf=0.0163299125
											518:leaf=-0.0542013496
										422:[f5<57856] yes=519,no=520,missing=519
											519:leaf=0.0121391509
											520:leaf=0.0605287254
									334:leaf=-0.0717964396
							166:[f138<0.5] yes=245,no=246,missing=245
								245:[f233<0.5] yes=335,no=336,missing=335
									335:[f34<8679936] yes=423,no=424,missing=423
										423:[f36<0.0184007995] yes=521,no=522,missing=521
											521:[f0<3.5] yes=615,no=616,missing=615
												615:leaf=-0.024227757
												616:leaf=0.0686452538
											522:[f2<232] yes=617,no=618,missing=617
												617:leaf=0.0753708556
												618:leaf=-0.0109017827
										424:[f37<7.56281567] yes=523,no=524,missing=523
											523:leaf=-0.0561255217
											524:[f62<0.533178627] yes=619,no=620,missing=619
												619:leaf=0.065543063
												620:leaf=-0.00806669425
									336:[f86<0.5] yes=425,no=426,missing=425
										425:leaf=0.06343095
										426:leaf=-0.057317581
								246:[f149<0.5] yes=337,no=338,missing=337
									337:leaf=0.0587007888
									338:[f107<0.5] yes=427,no=428,missing=427
										427:[f38<6.00622082] yes=525,no=526,missing=525
											525:leaf=-0.0708011687
											526:leaf=0.0258634258
										428:leaf=0.0445828363
						96:[f37<6.51835918] yes=167,no=168,missing=167
							167:[f52<0.5] yes=247,no=248,missing=247
								247:leaf=0.0594613552
								248:[f6<1024] yes=339,no=340,missing=339
									339:[f11<6.5] yes=429,no=430,missing=429
										429:leaf=0.0442567877
										430:[f86<0.5] yes=527,no=528,missing=527
											527:[f66<0.0142857144] yes=621,no=622,missing=621
												621:leaf=-0.0603371002
												622:leaf=0.0157624185
											528:[f62<0.689949036] yes=623,no=624,missing=623
												623:leaf=-0.0346102305
												624:leaf=0.0493405648
									340:[f0<6.5] yes=431,no=432,missing=431
										431:leaf=0.0570984744
										432:leaf=-0.0265916158
							168:[f69<0.164665997] yes=249,no=250,missing=249
								249:[f12<6] yes=341,no=342,missing=341
									341:[f42<0.999856055] yes=433,no=434,missing=433
										433:[f31<235008] yes=529,no=530,missing=529
											529:[f155<0.5] yes=625,no=626,missing=625
												625:leaf=0.046175316
												626:leaf=-0.022073295
											530:[f38<3.69961619] yes=627,no=628,missing=627
												627:leaf=0.00608407147
												628:leaf=-0.0586714558
										434:[f172<0.5] yes=531,no=532,missing=531
											531:[f21<688128] yes=629,no=630,missing=629
												629:leaf=-0.0562345982
												630:leaf=0.0523508601
											532:[f63<0.0128669776] yes=631,no=632,missing=631
												631:leaf=0.0202176608
												632:leaf=-0.0584972836
									342:[f9<4.5] yes=435,no=436,missing=435
										435:leaf=0.0625126213
										436:[f30<5376] yes=533,no=534,missing=533
											533:[f36<2.71055365] yes=633,no=634,missing=633
												633:leaf=-0.0607134663
												634:leaf=0.010359494
											534:[f4<998144] yes=635,no=636,missing=635
												635:leaf=-0
												636:leaf=0.0521107838
								250:[f13<5.5] yes=343,no=344,missing=343
									343:[f25<1714176] yes=437,no=438,missing=437
										437:[f30<75520] yes=535,no=536,missing=535
											535:[f37<6.60601521] yes=637,no=638,missing=637
												637:leaf=0.0556782
												638:leaf=0.0748474896
											536:leaf=0.00818040129
										438:[f39<1.71313643] yes=537,no=538,missing=537
											537:[f38<5.30337286] yes=639,no=640,missing=639
												639:leaf=-0.036616914
												640:leaf=0.0187107045
											538:[f39<323.683105] yes=641,no=642,missing=641
												641:leaf=0.0682266429
												642:leaf=0.00842668954
									344:[f4<310528] yes=439,no=440,missing=439
										439:leaf=-0.00835673977
										440:leaf=-0.0444444455
				24:[f27<0.5] yes=49,no=50,missing=49
					49:[f9<5.5] yes=97,no=98,missing=97
						97:[f30<61952] yes=169,no=170,missing=169
							169:[f216<0.5] yes=251,no=252,missing=251
								251:[f26<0.5] yes=345,no=346,missing=345
									345:[f62<0.0131578948] yes=441,no=442,missing=441
										441:[f30<1792] yes=539,no=540,missing=539
											539:leaf=0.0483573079
											540:leaf=-0.0092699416
										442:leaf=0.0727671534
									346:leaf=0.000239844565
								252:[f213<0.5] yes=347,no=348,missing=347
									347:[f70<0.0663009435] yes=443,no=444,missing=443
										443:leaf=-0.0560097508
										444:leaf=-0.00796360336
									348:leaf=0.0634960309
							170:leaf=-0.046479959
						98:[f34<1123584] yes=171,no=172,missing=171
							171:leaf=-0.0735327303
							172:leaf=0.0282331891
					50:[f11<7.5] yes=99,no=100,missing=99
						99:[f70<0.0473174378] yes=173,no=174,missing=173
							173:leaf=-0.0156207336
							174:leaf=0.0579960011
						100:[f51<0.5] yes=175,no=176,missing=175
							175:[f309<0.5] yes=253,no=254,missing=253
								253:[f47<0.386119694] yes=349,no=350,missing=349
									349:[f63<0.0472994596] yes=445,no=446,missing=445
										445:[f203<0.5] yes=541,no=542,missing=541
											541:[f19<112640] yes=643,no=644,missing=643
												643:leaf=-0.0413983725
												644:leaf=-0.0753832534
											542:[f47<0.0106762704] yes=645,no=646,missing=645
												645:leaf=0.00185850949
												646:leaf=-0.0580532551
										446:[f37<7.05930567] yes=543,no=544,missing=543
											543:[f11<10.5] yes=647,no=648,missing=647
												647:leaf=-0.068349719
												648:leaf=0.0104434285
											544:leaf=0.0448311791
									350:leaf=0.00864916202
								254:leaf=0.0104434285
							176:leaf=0.0468765758
			12:[f28<0.5] yes=25,no=26,missing=25
				25:[f37<6.7151556] yes=51,no=52,missing=51
					51:[f25<6] yes=101,no=102,missing=101
						101:[f4<836608] yes=177,no=178,missing=177
							177:[f38<4.87723875] yes=255,no=256,missing=255
								255:[f153<0.5] yes=351,no=352,missing=351
									351:[f0<11] yes=447,no=448,missing=447
										447:leaf=-0.0711340159
										448:leaf=-0.00851796288
									352:leaf=-0.00614964636
								256:[f47<0.00735948095] yes=353,no=354,missing=353
									353:leaf=0.00801185425
									354:leaf=0.0442373678
							178:[f38<3.50569344] yes=257,no=258,missing=257
								257:leaf=-0.000691674126
								258:leaf=0.0647338778
						102:[f35<2.16716337] yes=179,no=180,missing=179
							179:[f288<0.5] yes=259,no=260,missing=259
								259:[f21<3145728] yes=355,no=356,missing=355
									355:[f8<151224320] yes=449,no=450,missing=449
										449:[f26<0.5] yes=545,no=546,missing=545
											545:[f27<0.5] yes=649,no=650,missing=649
												649:leaf=0.068631798
												650:leaf=0.0236962885
											546:[f6<256] yes=651,no=652,missing=651
												651:leaf=0.055271063
												652:leaf=-0.0374030694
										450:leaf=-0.043391861
									356:leaf=-0.0446373932
								260:leaf=-0.0472861677
							180:[f4<75776] yes=261,no=262,missing=261
								261:[f217<0.5] yes=357,no=358,missing=357
									357:[f118<0.5] yes=451,no=452,missing=451
										451:leaf=0.0697741285
										452:leaf=-0.0158890318
									358:leaf=-0.0364229195
								262:[f120<0.5] yes=359,no=360,missing=359
									359:[f70<0.00678733038] yes=453,no=454,missing=453
										453:[f62<0.15625] yes=547,no=548,missing=547
											547:leaf=-0.0468759909
											548:leaf=0.0499933772
										454:[f5<273152] yes=549,no=550,missing=549
											549:leaf=-0.0640270188
											550:leaf=-0.00747139845
									360:[f124<0.5] yes=455,no=456,missing=455
										455:leaf=0.0473588407
										456:leaf=-0.00783164892
					52:[f4<6067712] yes=103,no=104,missing=103
						103:[f297<0.5] yes=181,no=182,missing=181
							181:leaf=0.0751833916
							182:leaf=0.0215921868
						104:leaf=-0.0263120551
				26:[f37<6.54056454] yes=53,no=54,missing=53
					53:[f51<0.5] yes=105,no=106,missing=105
						105:[f47<2.47688586e-05] yes=183,no=184,missing=183
							183:leaf=0.0497057177
							184:[f34<7424] yes=263,no=264,missing=263
								263:[f11<9.5] yes=361,no=362,missing=361
									361:leaf=-0.0181388818
									362:leaf=0.0503006205
								264:[f47<0.486559153] yes=363,no=364,missing=363
									363:[f294<0.5] yes=457,no=458,missing=457
										457:[f2<232] yes=551,no=552,missing=551
											551:[f101<0.5] yes=653,no=654,missing=653
												653:leaf=-0.0649760813
												654:leaf=0.00426093303
											552:[f14<29] yes=655,no=656,missing=655
												655:leaf=-0.0760690197
												656:leaf=-0
										458:[f62<0.919985771] yes=553,no=554,missing=553
											553:[f19<161792] yes=657,no=658,missing=657
												657:leaf=0.000501996838
												658:leaf=-0.0675048307
											554:[f25<55296] yes=659,no=660,missing=659
												659:leaf=0.0302002728
												660:leaf=-0.0439461507
									364:leaf=0.0181127526
						106:leaf=0.0515599996
					54:[f27<0.5] yes=107,no=108,missing=107
						107:[f21<1572864] yes=185,no=186,missing=185
							185:[f64<0.5] yes=265,no=266,missing=265
								265:[f13<5.5] yes=365,no=366,missing=365
									365:[f228<0.5] yes=459,no=460,missing=459
										459:leaf=0.0757484883
										460:[f104<0.5] yes=555,no=556,missing=555
											555:leaf=-0.0265979804
											556:leaf=0.0501666069
									366:leaf=-0.00739551941
								266:leaf=-0.0259593073
							186:[f42<1.02629113] yes=267,no=268,missing=267
								267:leaf=-0.0613609143
								268:leaf=0.00086402602
						108:[f37<7.75949574] yes=187,no=188,missing=187
							187:[f31<129536] yes=269,no=270,missing=269
								269:[f11<11] yes=367,no=368,missing=367
									367:leaf=-0.0501953773
									368:leaf=0.0136604626
								270:leaf=-0.072722055
							188:leaf=0.0356482863
		6:[f28<0.5] yes=13,no=14,missing=13
			13:[f37<6.2887888] yes=27,no=28,missing=27
				27:[f0<3.5] yes=55,no=56,missing=55
					55:[f4<8192] yes=109,no=110,missing=109
						109:leaf=-0
						110:[f32<433664] yes=189,no=190,missing=189
							189:leaf=0.0639814585
							190:leaf=-0
					56:[f82<0.5] yes=111,no=112,missing=111
						111:[f50<0.5] yes=191,no=192,missing=191
							191:leaf=-0.0726042539
							192:[f4<368896] yes=271,no=272,missing=271
								271:leaf=0.0438429378
								272:leaf=-0.0468707122
						112:leaf=0.0474040061
				28:[f231<0.5] yes=57,no=58,missing=57
					57:[f42<0.999962807] yes=113,no=114,missing=113
						113:[f42<0.999891281] yes=193,no=194,missing=193
							193:leaf=0.0634541437
							194:leaf=-0.0284530893
						114:[f69<0.412778914] yes=195,no=196,missing=195
							195:[f19<35610624] yes=273,no=274,missing=273
								273:leaf=0.0765275583
								274:leaf=0.0251863729
							196:leaf=0.0203981046
					58:[f27<0.5] yes=115,no=116,missing=115
						115:leaf=0.0667670593
						116:[f37<7.17489147] yes=197,no=198,missing=197
							197:leaf=-0.0479823686
							198:leaf=-0.00902531669
			14:[f299<0.5] yes=29,no=30,missing=29
				29:[f22<6144] yes=59,no=60,missing=59
					59:[f37<7.35701084] yes=117,no=118,missing=117
						117:[f27<0.5] yes=199,no=200,missing=199
							199:[f28<2.5] yes=275,no=276,missing=275
								275:[f37<6.42920589] yes=369,no=370,missing=369
									369:[f11<11.5] yes=461,no=462,missing=461
										461:[f39<68.5266647] yes=557,no=558,missing=557
											557:[f37<5.18284321] yes=661,no=662,missing=661
												661:leaf=0.0160594173
												662:leaf=-0.0721234381
											558:leaf=0.017710425
										462:[f9<8] yes=559,no=560,missing=559
											559:[f25<20480] yes=663,no=664,missing=663
												663:leaf=0.0641158968
												664:leaf=0.00249595521
											560:leaf=-0.0669544488
									370:[f47<0.000900157145] yes=463,no=464,missing=463
										463:leaf=0.0180605538
										464:leaf=0.0723046809
								276:[f43<0.5] yes=371,no=372,missing=371
									371:[f4<276224] yes=465,no=466,missing=465
										465:[f35<0.231869981] yes=561,no=562,missing=561
											561:leaf=-0.00825226959
											562:leaf=0.0616818368
										466:leaf=-0.0264425389
									372:[f120<0.5] yes=467,no=468,missing=467
										467:[f19<34816] yes=563,no=564,missing=563
											563:leaf=0.00965821091
											564:[f173<0.5] yes=665,no=666,missing=665
												665:leaf=-0.0738399029
												666:leaf=-0.00929427892
										468:leaf=0.0363071039
							200:[f52<0.5] yes=277,no=278,missing=277
								277:leaf=0.0434688702
								278:[f42<2.26989436] yes=373,no=374,missing=373
									373:[f47<0.000179478724] yes=469,no=470,missing=469
										469:leaf=-0.00611917907
										470:[f47<0.208333343] yes=565,no=566,missing=565
											565:[f12<22] yes=667,no=668,missing=667
												667:leaf=-0.0746916234
												668:leaf=-0.00869145524
											566:leaf=-0.00820068922
									374:leaf=0.00844492484
						118:[f113<0.5] yes=201,no=202,missing=201
							201:[f8<2129920] yes=279,no=280,missing=279
								279:leaf=-0.043391861
								280:[f40<614336.375] yes=375,no=376,missing=375
									375:leaf=0.0261368863
									376:leaf=0.0739989206
							202:[f2<232] yes=281,no=282,missing=281
								281:leaf=-0.0594357289
								282:leaf=-0.0075998907
					60:[f183<0.5] yes=119,no=120,missing=119
						119:[f47<4.93416992e-05] yes=203,no=204,missing=203
							203:leaf=-0
							204:[f39<1.14729762] yes=283,no=284,missing=283
								283:[f17<2.5] yes=377,no=378,missing=377
									377:leaf=0.0281023178
									378:leaf=-0.0598182604
								284:[f69<0.948275864] yes=379,no=380,missing=379
									379:leaf=-0.0766917318
									380:leaf=-0.0249188077
						120:[f47<0.00341694942] yes=205,no=206,missing=205
							205:leaf=0.0733010918
							206:[f4<25856] yes=285,no=286,missing=285
								285:leaf=-0.00803870615
								286:leaf=-0.0721347556
				30:[f52<0.5] yes=61,no=62,missing=61
					61:[f13<3.5] yes=121,no=122,missing=121
						121:leaf=0.07491941
						122:leaf=-0.0495742559
					62:[f70<0.0329308882] yes=123,no=124,missing=123
						123:[f13<3] yes=207,no=208,missing=207
							207:[f168<0.5] yes=287,no=288,missing=287
								287:[f4<43776] yes=381,no=382,missing=381
									381:leaf=-0.0428341031
									382:[f280<0.5] yes=471,no=472,missing=471
										471:leaf=0.0696883425
										472:[f65<0.00724637695] yes=567,no=568,missing=567
											567:[f12<13.5] yes=669,no=670,missing=669
												669:leaf=0.0158867836
												670:leaf=-0.0274151471
											568:leaf=0.0494469739
								288:[f154<0.5] yes=383,no=384,missing=383
									383:leaf=0.00856350549
									384:leaf=-0.0504691079
							208:leaf=-0.0707588494
						124:[f35<4.83901596] yes=209,no=210,missing=209
							209:leaf=-0.0719562396
							210:leaf=0.0259209294
booster[2]:
0:[f53<0.5] yes=1,no=2,missing=1
	1:[f11<7.5] yes=3,no=4,missing=3
		3:[f8<1.62830746e+09] yes=7,no=8,missing=7
			7:[f62<0.985777259] yes=15,no=16,missing=15
				15:[f23<8144] yes=31,no=32,missing=31
					31:[f42<1.02364659] yes=63,no=64,missing=63
						63:leaf=0.016600769
						64:leaf=-0.0485928543
					32:[f8<1.08576768e+09] yes=65,no=66,missing=65
						65:[f16<1.5] yes=121,no=122,missing=121
							121:[f69<0.9375] yes=199,no=200,missing=199
								199:leaf=0.0733560622
								200:leaf=0.0235124268
							122:[f35<0.0407779925] yes=201,no=202,missing=201
								201:leaf=-0.0078588184
								202:leaf=0.0427087694
						66:[f36<0.441951841] yes=123,no=124,missing=123
							123:leaf=-0.0554186031
							124:[f65<0.188099727] yes=203,no=204,missing=203
								203:leaf=0.0665656626
								204:leaf=-0.0093709603
				16:[f114<0.5] yes=33,no=34,missing=33
					33:[f27<0.5] yes=67,no=68,missing=67
						67:leaf=0.071095027
						68:[f38<2.4131918] yes=125,no=126,missing=125
							125:leaf=-0.051113572
							126:leaf=0.0094547281
					34:[f18<768] yes=69,no=70,missing=69
						69:leaf=-0.0701425001
						70:leaf=0.0539274253
			8:[f36<0.582654595] yes=17,no=18,missing=17
				17:[f118<0.5] yes=35,no=36,missing=35
					35:[f13<1.5] yes=71,no=72,missing=71
						71:leaf=-0.0737096444
						72:leaf=0.0105802668
					36:[f26<0.5] yes=73,no=74,missing=73
						73:[f36<0.199586257] yes=127,no=128,missing=127
							127:leaf=0.0112355109
							128:leaf=0.0588918142
						74:[f2<232] yes=129,no=130,missing=129
							129:leaf=-0.0077805086
							130:leaf=-0.0624574646
				18:[f11<5.5] yes=37,no=38,missing=37
					37:[f42<1.05708241] yes=75,no=76,missing=75
						75:[f4<27136] yes=131,no=132,missing=131
							131:leaf=0.00809409562
							132:leaf=-0.0501801148
						76:leaf=0.0382966809
					38:leaf=0.0672421306
		4:[f194<0.5] yes=9,no=10,missing=9
			9:[f37<7.76286507] yes=19,no=20,missing=19
				19:[f62<0.754493594] yes=39,no=40,missing=39
					39:[f11<8.5] yes=77,no=78,missing=77
						77:[f8<268500992] yes=133,no=134,missing=133
							133:[f5<1984] yes=205,no=206,missing=205
								205:[f38<3.60373831] yes=281,no=282,missing=281
									281:[f25<640] yes=379,no=380,missing=379
										379:leaf=0.0703491867
										380:[f47<0.0263888892] yes=481,no=482,missing=481
											481:[f38<2.97097635] yes=577,no=578,missing=577
												577:leaf=0.0652742237
												578:leaf=0.00674887886
											482:[f38<2.6646421] yes=579,no=580,missing=579
												579:leaf=0.050747823
												580:leaf=-0.0479569919
									282:leaf=-0.0666387752
								206:[f26<0.5] yes=283,no=284,missing=283
									283:[f62<0.0909090936] yes=381,no=382,missing=381
										381:[f47<0.00120377564] yes=483,no=484,missing=483
											483:[f37<5.18379784] yes=581,no=582,missing=581
												581:leaf=0.0476860069
												582:leaf=-0.0287195109
											484:[f37<7.46531963] yes=583,no=584,missing=583
												583:leaf=-0.0637095049
												584:leaf=0.027939342
										382:[f15<4.5] yes=485,no=486,missing=485
											485:[f63<0.157490075] yes=585,no=586,missing=585
												585:leaf=0.065302439
												586:leaf=-0.025608141
											486:leaf=-0.0585041307
									284:leaf=0.0654495284
							134:[f8<8.79350933e+12] yes=207,no=208,missing=207
								207:[f220<0.5] yes=285,no=286,missing=285
									285:leaf=-0.0733352527
									286:leaf=-0.0232836176
								208:leaf=-0.0283656642
						78:[f21<7097152] yes=135,no=136,missing=135
							135:[f12<15.5] yes=209,no=210,missing=209
								209:[f1<2.14748365e+09] yes=287,no=288,missing=287
									287:[f295<0.5] yes=383,no=384,missing=383
										383:[f37<7.54128647] yes=487,no=488,missing=487
											487:[f38<0.943174839] yes=587,no=588,missing=587
												587:leaf=-0.00897856522
												588:leaf=-0.0734237656
											488:[f42<1.02640605] yes=589,no=590,missing=589
												589:leaf=-0.0690617561
												590:leaf=0.0473913103
										384:[f9<5.5] yes=489,no=490,missing=489
											489:[f135<0.5] yes=591,no=592,missing=591
												591:leaf=0.0619453713
												592:leaf=-0.0125964843
											490:[f28<3.5] yes=593,no=594,missing=593
												593:leaf=-0.0735392869
												594:leaf=0.00634547323
									288:leaf=0.0465800315
								210:[f89<0.5] yes=289,no=290,missing=289
									289:[f36<4.26467228] yes=385,no=386,missing=385
										385:leaf=-0.0600365475
										386:leaf=-0.00793029368
									290:leaf=0.0591573566
							136:leaf=0.062655203
					40:[f13<4.5] yes=79,no=80,missing=79
						79:[f8<343932928] yes=137,no=138,missing=137
							137:[f153<0.5] yes=211,no=212,missing=211
								211:[f9<5.5] yes=291,no=292,missing=291
									291:[f17<2.5] yes=387,no=388,missing=387
										387:[f12<5] yes=491,no=492,missing=491
											491:[f42<0.812463641] yes=595,no=596,missing=595
												595:leaf=0.0237555746
												596:leaf=0.0723334327
											492:leaf=0.0234680474
										388:leaf=-0.00177985663
									292:[f37<6.47168398] yes=389,no=390,missing=389
										389:[f47<0.0737468153] yes=493,no=494,missing=493
											493:[f30<768] yes=597,no=598,missing=597
												597:leaf=-0.0126872659
												598:leaf=-0.0499588177
											494:leaf=0.0475533158
										390:[f4<614912] yes=495,no=496,missing=495
											495:leaf=0.0631436631
											496:leaf=-0.0095564425
								212:leaf=-0.058320608
							138:[f242<0.5] yes=213,no=214,missing=213
								213:[f28<0.5] yes=293,no=294,missing=293
									293:leaf=0.0533207841
									294:[f35<4.12252283] yes=391,no=392,missing=391
										391:[f208<0.5] yes=497,no=498,missing=497
											497:[f42<0.946165919] yes=599,no=600,missing=599
												599:leaf=-0.0125550721
												600:leaf=-0.0711010247
											498:leaf=0.0206091572
										392:[f8<3.62745037e+09] yes=499,no=500,missing=499
											499:leaf=0.0065889731
											500:leaf=0.0425410531
								214:leaf=0.0619564317
						80:[f153<0.5] yes=139,no=140,missing=139
							139:[f14<8] yes=215,no=216,missing=215
								215:leaf=-0.0740075782
								216:[f148<0.5] yes=295,no=296,missing=295
									295:leaf=0.0101782093
									296:leaf=-0.0505235903
							140:[f13<8] yes=217,no=218,missing=217
								217:leaf=0.026081292
								218:leaf=-0.0449174382
				20:[f17<2.5] yes=41,no=42,missing=41
					41:[f13<9.5] yes=81,no=82,missing=81
						81:[f150<0.5] yes=141,no=142,missing=141
							141:[f4<6016] yes=219,no=220,missing=219
								219:[f9<5.5] yes=297,no=298,missing=297
									297:leaf=0.0554708764
									298:leaf=-0.0425376743
								220:[f28<1.5] yes=299,no=300,missing=299
									299:leaf=0.0732925683
									300:[f120<0.5] yes=393,no=394,missing=393
										393:leaf=0.00648656674
										394:leaf=0.0424825959
							142:leaf=-0.00905150734
						82:leaf=-0.0624700785
					42:[f13<3] yes=83,no=84,missing=83
						83:[f42<0.996023893] yes=143,no=144,missing=143
							143:leaf=-0.0427684635
							144:leaf=0.0574774221
						84:leaf=-0.0702348426
			10:[f13<5] yes=21,no=22,missing=21
				21:[f28<2.5] yes=43,no=44,missing=43
					43:[f49<0.5] yes=85,no=86,missing=85
						85:[f0<7.5] yes=145,no=146,missing=145
							145:[f66<0.00306748459] yes=221,no=222,missing=221
								221:[f204<0.5] yes=301,no=302,missing=301
									301:[f171<0.5] yes=395,no=396,missing=395
										395:[f264<0.5] yes=501,no=502,missing=501
											501:leaf=0.0698833987
											502:[f28<0.5] yes=601,no=602,missing=601
												601:leaf=0.0562415272
												602:leaf=-0.0424866155
										396:leaf=-0.0508006886
									302:[f63<0.126132011] yes=397,no=398,missing=397
										397:[f295<0.5] yes=503,no=504,missing=503
											503:leaf=0.0132363187
											504:[f37<6.38259459] yes=603,no=604,missing=603
												603:leaf=0.040288195
												604:leaf=0.0724850819
										398:leaf=0.00763747795
								222:[f4<255488] yes=303,no=304,missing=303
									303:leaf=0.0519871078
									304:leaf=-0.0521447174
							146:[f17<2.5] yes=223,no=224,missing=223
								223:[f12<5] yes=305,no=306,missing=305
									305:[f39<321.812195] yes=399,no=400,missing=399
										399:leaf=0.0586664751
										400:[f42<1.01337099] yes=505,no=506,missing=505
											505:leaf=0.0420593955
											506:leaf=-0.0157491248
									306:leaf=-0.0286770668
								224:[f113<0.5] yes=307,no=308,missing=307
									307:leaf=-0.0538703576
									308:leaf=-0.0123472447
						86:leaf=-0.0608880259
					44:[f148<0.5] yes=87,no=88,missing=87
						87:[f27<0.5] yes=147,no=148,missing=147
							147:leaf=0.0202900358
							148:leaf=-0.0680465475
						88:[f63<0.0551856197] yes=149,no=150,missing=149
							149:[f213<0.5] yes=225,no=226,missing=225
								225:leaf=0.0642475784
								226:leaf=0.00619630842
							150:leaf=-0.0505084991
				22:[f28<0.5] yes=45,no=46,missing=45
					45:leaf=0.0703500882
					46:leaf=-0.0736501515
	2:[f15<5.5] yes=5,no=6,missing=5
		5:[f17<2.5] yes=11,no=12,missing=11
			11:[f8<735412224] yes=23,no=24,missing=23
				23:[f28<0.5] yes=47,no=48,missing=47
					47:[f31<7659776] yes=89,no=90,missing=89
						89:[f27<0.5] yes=151,no=152,missing=151
							151:[f71<0.800000012] yes=227,no=228,missing=227
								227:[f70<0.595977068] yes=309,no=310,missing=309
									309:leaf=0.0737025142
									310:[f49<0.5] yes=401,no=402,missing=401
										401:[f12<9.5] yes=507,no=508,missing=507
											507:leaf=0.0700689256
											508:leaf=0.0192052126
										402:leaf=-0.037418291
								228:[f19<593920] yes=311,no=312,missing=311
									311:leaf=0.0514513589
									312:leaf=-0.00910047255
							152:[f34<1747200] yes=229,no=230,missing=229
								229:[f70<0.0799239576] yes=313,no=314,missing=313
									313:[f181<0.5] yes=403,no=404,missing=403
										403:[f64<0.5] yes=509,no=510,missing=509
											509:[f69<0.939696968] yes=605,no=606,missing=605
												605:leaf=0.0732025579
												606:leaf=0.0233262554
											510:[f37<5.84618664] yes=607,no=608,missing=607
												607:leaf=0.000584642927
												608:leaf=0.0711594224
										404:leaf=0.0150442785
									314:[f285<0.5] yes=405,no=406,missing=405
										405:[f171<0.5] yes=511,no=512,missing=511
											511:[f14<0.5] yes=609,no=610,missing=609
												609:leaf=0.0719093606
												610:leaf=0.00704379193
											512:[f39<1.68871832] yes=611,no=612,missing=611
												611:leaf=0.00992840435
												612:leaf=0.0688277483
										406:[f39<1.45375025] yes=513,no=514,missing=513
											513:leaf=-0.0646728873
											514:[f108<0.5] yes=613,no=614,missing=613
												613:leaf=-0.00319303805
												614:leaf=0.0645852834
								230:[f25<9418752] yes=315,no=316,missing=315
									315:[f37<6.80914593] yes=407,no=408,missing=407
										407:[f101<0.5] yes=515,no=516,missing=515
											515:[f25<8192] yes=615,no=616,missing=615
												615:leaf=-0.0148282228
												616:leaf=0.0508337058
											516:[f5<2053120] yes=617,no=618,missing=617
												617:leaf=-0.0559118688
												618:leaf=0.000471022911
										408:leaf=0.070721142
									316:[f22<12288] yes=409,no=410,missing=409
										409:leaf=0.0421813726
										410:leaf=-0.047232423
						90:[f4<7499264] yes=153,no=154,missing=153
							153:leaf=0.0723632798
							154:[f5<150528] yes=231,no=232,missing=231
								231:[f4<7759872] yes=317,no=318,missing=317
									317:leaf=-0.0482536256
									318:leaf=0.0623932295
								232:[f22<6144] yes=319,no=320,missing=319
									319:leaf=-0.0138893081
									320:leaf=-0.0679675117
					48:[f27<0.5] yes=91,no=92,missing=91
						91:[f64<0.50746268] yes=155,no=156,missing=155
							155:[f138<0.5] yes=233,no=234,missing=233
								233:[f34<8679936] yes=321,no=322,missing=321
									321:[f233<0.5] yes=411,no=412,missing=411
										411:[f9<5.5] yes=517,no=518,missing=517
											517:[f2<232] yes=619,no=620,missing=619
												619:leaf=0.073130101
												620:leaf=-0.00652625132
											518:[f49<0.5] yes=621,no=622,missing=621
												621:leaf=0.0587536469
												622:leaf=-0.0661631152
										412:[f62<0.56574291] yes=519,no=520,missing=519
											519:leaf=0.0574449413
											520:leaf=-0.0499360822
									322:[f37<7.56281567] yes=413,no=414,missing=413
										413:leaf=-0.0533287115
										414:[f62<0.414198577] yes=521,no=522,missing=521
											521:leaf=0.0624742433
											522:leaf=0.00902093295
								234:[f149<0.5] yes=323,no=324,missing=323
									323:leaf=0.0588448942
									324:[f47<0.0354231969] yes=415,no=416,missing=415
										415:[f11<8.5] yes=523,no=524,missing=523
											523:leaf=0.0498711877
											524:leaf=-0.0072308206
										416:[f62<0.402673662] yes=525,no=526,missing=525
											525:leaf=0.00935303885
											526:leaf=-0.0675093606
							156:[f43<0.5] yes=235,no=236,missing=235
								235:[f25<1138688] yes=325,no=326,missing=325
									325:[f42<0.959062219] yes=417,no=418,missing=417
										417:[f11<29.5] yes=527,no=528,missing=527
											527:[f38<3.33532214] yes=623,no=624,missing=623
												623:leaf=-0.0378787071
												624:leaf=0.0278681424
											528:[f4<14848] yes=625,no=626,missing=625
												625:leaf=0.0637415051
												626:leaf=0.00673795259
										418:[f25<126976] yes=529,no=530,missing=529
											529:[f37<3.57060218] yes=627,no=628,missing=627
												627:leaf=-0.0505051613
												628:leaf=0.0630775616
											530:[f5<45824] yes=629,no=630,missing=629
												629:leaf=-0.00718046492
												630:leaf=0.0504051
									326:[f50<0.5] yes=419,no=420,missing=419
										419:[f11<64] yes=531,no=532,missing=531
											531:[f11<29.5] yes=631,no=632,missing=631
												631:leaf=0.00513019552
												632:leaf=0.05839682
											532:[f39<68.7473373] yes=633,no=634,missing=633
												633:leaf=-0.0510512739
												634:leaf=0.00874916278
										420:leaf=-0.0690005943
								236:[f11<9.5] yes=327,no=328,missing=327
									327:leaf=0.0713067129
									328:[f4<847616] yes=421,no=422,missing=421
										421:leaf=0.0550085492
										422:leaf=0.00338304183
						92:[f37<6.51835918] yes=157,no=158,missing=157
							157:[f52<0.5] yes=237,no=238,missing=237
								237:leaf=0.0582446456
								238:[f6<1024] yes=329,no=330,missing=329
									329:[f11<6.5] yes=423,no=424,missing=423
										423:leaf=0.0472030379
										424:[f5<579072] yes=533,no=534,missing=533
											533:[f19<2605056] yes=635,no=636,missing=635
												635:leaf=-0.0590154529
												636:leaf=0.0116332322
											534:[f69<0.359348714] yes=637,no=638,missing=637
												637:leaf=0.0291013811
												638:leaf=-0.042699635
									330:[f38<3.63123107] yes=425,no=426,missing=425
										425:leaf=-0.0263849776
										426:leaf=0.0569675006
							158:[f69<0.164868951] yes=239,no=240,missing=239
								239:[f12<6] yes=331,no=332,missing=331
									331:[f37<7.01015043] yes=427,no=428,missing=427
										427:[f172<0.5] yes=535,no=536,missing=535
											535:[f140<0.5] yes=639,no=640,missing=639
												639:leaf=0.0117769111
												640:leaf=0.0670287982
											536:[f30<12544] yes=641,no=642,missing=641
												641:leaf=-0.0440391712
												642:leaf=0.0468510874
										428:[f20<768] yes=537,no=538,missing=537
											537:[f11<29.5] yes=643,no=644,missing=643
												643:leaf=-0.0302955974
												644:leaf=0.0357503258
											538:[f30<30720] yes=645,no=646,missing=645
												645:leaf=0.0659729019
												646:leaf=-0.011126182
									332:[f9<4.5] yes=429,no=430,missing=429
										429:[f114<0.5] yes=539,no=540,missing=539
											539:leaf=0.0643197
											540:leaf=0.00785782095
										430:[f30<5376] yes=541,no=542,missing=541
											541:[f37<6.59364176] yes=647,no=648,missing=647
												647:leaf=0.00161952118
												648:leaf=-0.0599593148
											542:[f5<384512] yes=649,no=650,missing=649
												649:leaf=-0.0199999996
												650:leaf=0.0511265546
								240:[f13<5.5] yes=333,no=334,missing=333
									333:[f25<2019328] yes=431,no=432,missing=431
										431:[f71<0.0785916671] yes=543,no=544,missing=543
											543:[f217<0.5] yes=651,no=652,missing=651
												651:leaf=0.053386312
												652:leaf=0.0718091205
											544:leaf=0.0131369764
										432:[f39<1.7131356] yes=545,no=546,missing=545
											545:[f38<5.43631077] yes=653,no=654,missing=653
												653:leaf=-0.0506652333
												654:leaf=0.00566122355
											546:leaf=0.0582070276
									334:[f31<310528] yes=433,no=434,missing=433
										433:leaf=-0.00817159843
										434:leaf=-0.0434349813
				24:[f27<0.5] yes=49,no=50,missing=49
					49:[f9<5.5] yes=93,no=94,missing=93
						93:[f35<5.75170755] yes=159,no=160,missing=159
							159:[f88<0.5] yes=241,no=242,missing=241
								241:[f47<0.962067366] yes=335,no=336,missing=335
									335:[f26<0.5] yes=435,no=436,missing=435
										435:leaf=0.0701128468
										436:leaf=0.00853467267
									336:leaf=0.00565045932
								242:[f213<0.5] yes=337,no=338,missing=337
									337:[f42<1.02612686] yes=437,no=438,missing=437
										437:leaf=0.0355403386
										438:leaf=-0.0550486743
									338:leaf=0.0625772774
							160:leaf=-0.0433137305
						94:[f5<635136] yes=161,no=162,missing=161
							161:leaf=-0.0691330433
							162:leaf=0.0280597769
					50:[f11<7.5] yes=95,no=96,missing=95
						95:[f37<7.41234589] yes=163,no=164,missing=163
							163:leaf=-0.0217769574
							164:leaf=0.0511668324
						96:[f51<0.5] yes=165,no=166,missing=165
							165:[f63<0.0472013354] yes=243,no=244,missing=243
								243:[f11<8.5] yes=339,no=340,missing=339
									339:[f5<18432] yes=439,no=440,missing=439
										439:leaf=-0.0606220514
										440:[f37<6.3842802] yes=547,no=548,missing=547
											547:leaf=0.0452910252
											548:leaf=-0.0246725082
									340:[f31<66048] yes=441,no=442,missing=441
										441:[f32<12288] yes=549,no=550,missing=549
											549:leaf=-0.0589114465
											550:leaf=0.011527352
										442:[f47<3.4578683e-05] yes=551,no=552,missing=551
											551:leaf=-0.0240744986
											552:leaf=-0.0727882236
								244:[f294<0.5] yes=341,no=342,missing=341
									341:[f47<0.00681976043] yes=443,no=444,missing=443
										443:leaf=0.00811802596
										444:leaf=-0.0653915033
									342:[f272<0.5] yes=445,no=446,missing=445
										445:leaf=-0.00749769388
										446:leaf=0.0490359776
							166:leaf=0.0302001294
			12:[f28<0.5] yes=25,no=26,missing=25
				25:[f37<6.7151556] yes=51,no=52,missing=51
					51:[f25<6] yes=97,no=98,missing=97
						97:[f124<0.5] yes=167,no=168,missing=167
							167:[f231<0.5] yes=245,no=246,missing=245
								245:[f35<2.59760046] yes=343,no=344,missing=343
									343:leaf=-0.0691327751
									344:[f47<0.0105867293] yes=447,no=448,missing=447
										447:leaf=-0.0351635553
										448:leaf=0.00986348372
								246:[f244<0.5] yes=345,no=346,missing=345
									345:leaf=0.0531603657
									346:leaf=-0.0380814224
							168:[f21<1572864] yes=247,no=248,missing=247
								247:leaf=-0.0521915182
								248:leaf=0.0687134266
						98:[f218<0.5] yes=169,no=170,missing=169
							169:[f204<0.5] yes=249,no=250,missing=249
								249:[f172<0.5] yes=347,no=348,missing=347
									347:[f105<0.5] yes=449,no=450,missing=449
										449:[f30<12032] yes=553,no=554,missing=553
											553:[f12<16.5] yes=655,no=656,missing=655
												655:leaf=0.0463755019
												656:leaf=-0.012554884
											554:[f42<0.999545693] yes=657,no=658,missing=657
												657:leaf=-0.0510699078
												658:leaf=-0.0082064569
										450:[f228<0.5] yes=555,no=556,missing=555
											555:[f66<0.724774778] yes=659,no=660,missing=659
												659:leaf=0.0689196438
												660:leaf=0.0227310434
											556:[f62<0.910184383] yes=661,no=662,missing=661
												661:leaf=-0.0162341818
												662:leaf=0.0446645394
									348:[f38<3.91661882] yes=451,no=452,missing=451
										451:leaf=0.00784429908
										452:leaf=-0.0533491112
								250:[f38<4.57711029] yes=349,no=350,missing=349
									349:leaf=0.0716707036
									350:[f0<4.5] yes=453,no=454,missing=453
										453:leaf=-0.0124166235
										454:leaf=0.0502982587
							170:[f11<5.5] yes=251,no=252,missing=251
								251:leaf=0.0535458028
								252:[f62<0.575156212] yes=351,no=352,missing=351
									351:leaf=0.00790300127
									352:[f32<102400] yes=455,no=456,missing=455
										455:leaf=-0.0619983077
										456:leaf=-0.0220216531
					52:[f4<6067712] yes=99,no=100,missing=99
						99:[f63<0.120894164] yes=171,no=172,missing=171
							171:leaf=0.0722632781
							172:leaf=0.0138303386
						100:leaf=-0.0257329307
				26:[f37<6.54056454] yes=53,no=54,missing=53
					53:[f34<7424] yes=101,no=102,missing=101
						101:[f11<9.5] yes=173,no=174,missing=173
							173:leaf=-0.0124216732
							174:leaf=0.0462840125
						102:[f47<2.47688586e-05] yes=175,no=176,missing=175
							175:leaf=0.0423309654
							176:[f51<0.5] yes=253,no=254,missing=253
								253:[f47<0.486559153] yes=353,no=354,missing=353
									353:[f121<0.5] yes=457,no=458,missing=457
										457:[f11<9.5] yes=557,no=558,missing=557
											557:[f5<2304] yes=663,no=664,missing=663
												663:leaf=0.0097797066
												664:leaf=-0.0717877969
											558:[f32<7850.66699] yes=665,no=666,missing=665
												665:leaf=-0.020511739
												666:leaf=-0.0662157536
										458:[f0<3.5] yes=559,no=560,missing=559
											559:leaf=0.0469939411
											560:[f35<1.36390829] yes=667,no=668,missing=667
												667:leaf=0.00292760576
												668:leaf=-0.0574578978
									354:leaf=0.0176137146
								254:leaf=0.0317223743
					54:[f27<0.5] yes=103,no=104,missing=103
						103:[f173<0.5] yes=177,no=178,missing=177
							177:[f64<0.5] yes=255,no=256,missing=255
								255:[f176<0.5] yes=355,no=356,missing=355
									355:[f2<232] yes=459,no=460,missing=459
										459:leaf=0.0730414093
										460:leaf=0.00766819995
									356:leaf=-0.00934149139
								256:leaf=-0.025390882
							178:[f30<3072] yes=257,no=258,missing=257
								257:[f42<1.00981688] yes=357,no=358,missing=357
									357:leaf=-0.058922708
									358:leaf=-0.00578753883
								258:[f70<0.142267987] yes=359,no=360,missing=359
									359:leaf=0.0466021113
									360:leaf=-0.0316255949
						104:[f32<25190.4004] yes=179,no=180,missing=179
							179:[f15<4.5] yes=259,no=260,missing=259
								259:leaf=0.0515492149
								260:leaf=0.000269980665
							180:[f37<7.25905609] yes=261,no=262,missing=261
								261:[f42<1.42477942] yes=361,no=362,missing=361
									361:[f70<0.265277803] yes=461,no=462,missing=461
										461:leaf=-0.0721596256
										462:[f47<0.0634939447] yes=561,no=562,missing=561
											561:leaf=-0.00673644058
											562:leaf=-0.041977834
									362:[f15<4.5] yes=463,no=464,missing=463
										463:leaf=-0.0501923785
										464:leaf=0.0118045863
								262:[f5<524800] yes=363,no=364,missing=363
									363:leaf=0.0457367301
									364:leaf=-0.0476883687
		6:[f28<0.5] yes=13,no=14,missing=13
			13:[f37<6.29941273] yes=27,no=28,missing=27
				27:[f0<3.5] yes=55,no=56,missing=55
					55:[f4<8192] yes=105,no=106,missing=105
						105:leaf=-0
						106:leaf=0.0538459755
					56:[f42<1.01330924] yes=107,no=108,missing=107
						107:leaf=-0.0696116015
						108:[f42<1.09054422] yes=181,no=182,missing=181
							181:leaf=0.0528893918
							182:leaf=-0.0504300483
				28:[f4<7099648] yes=57,no=58,missing=57
					57:[f42<1.00430107] yes=109,no=110,missing=109
						109:[f112<0.5] yes=183,no=184,missing=183
							183:leaf=0.0665832236
							184:[f76<0.5] yes=263,no=264,missing=263
								263:leaf=-0.0537968352
								264:leaf=0.0545671731
						110:[f69<0.412188649] yes=185,no=186,missing=185
							185:leaf=0.0738160461
							186:leaf=0.016979659
					58:[f6<135424] yes=111,no=112,missing=111
						111:leaf=0.0460007377
						112:leaf=-0.043873366
			14:[f299<0.5] yes=29,no=30,missing=29
				29:[f22<6144] yes=59,no=60,missing=59
					59:[f37<7.35701084] yes=113,no=114,missing=113
						113:[f27<0.5] yes=187,no=188,missing=187
							187:[f50<0.5] yes=265,no=266,missing=265
								265:[f11<31] yes=365,no=366,missing=365
									365:[f222<0.5] yes=465,no=466,missing=465
										465:[f25<67584] yes=563,no=564,missing=563
											563:[f101<0.5] yes=669,no=670,missing=669
												669:leaf=-0.0652507991
												670:leaf=-0.0081416117
											564:[f17<2.5] yes=671,no=672,missing=671
												671:leaf=0.0363618582
												672:leaf=-0.0487341247
										466:[f4<1209344] yes=565,no=566,missing=565
											565:[f249<0.5] yes=673,no=674,missing=673
												673:leaf=0.0419776812
												674:leaf=-0.032991942
											566:leaf=-0.0519926734
									366:[f5<2304] yes=467,no=468,missing=467
										467:[f17<2.5] yes=567,no=568,missing=567
											567:leaf=0.0636444539
											568:leaf=0.0257911589
										468:[f37<6.01046419] yes=569,no=570,missing=569
											569:[f17<2.5] yes=675,no=676,missing=675
												675:leaf=0.00287066028
												676:leaf=-0.0499000698
											570:leaf=0.055002138
								266:leaf=0.0693521947
							188:[f37<6.78024578] yes=267,no=268,missing=267
								267:[f42<2.26989436] yes=367,no=368,missing=367
									367:[f38<5.79823303] yes=469,no=470,missing=469
										469:[f166<0.5] yes=571,no=572,missing=571
											571:leaf=-0.0723978207
											572:leaf=-0.0235790387
										470:leaf=-0.0181919839
									368:leaf=-0.00952202734
								268:[f5<207104] yes=369,no=370,missing=369
									369:[f39<66.8534317] yes=471,no=472,missing=471
										471:leaf=0.0095050931
										472:leaf=0.0345519073
									370:[f152<0.5] yes=473,no=474,missing=473
										473:leaf=-0.0664025694
										474:leaf=-0.00704300264
						114:[f144<0.5] yes=189,no=190,missing=189
							189:[f10<0.5] yes=269,no=270,missing=269
								269:leaf=0.0708712414
								270:leaf=-0.0307240356
							190:[f37<7.67942524] yes=271,no=272,missing=271
								271:leaf=-0.0086802775
								272:leaf=-0.0546586439
					60:[f183<0.5] yes=115,no=116,missing=115
						115:[f47<4.95457462e-05] yes=191,no=192,missing=191
							191:leaf=-0.00751187233
							192:[f39<1.14729762] yes=273,no=274,missing=273
								273:[f47<0.107539311] yes=371,no=372,missing=371
									371:leaf=-0.056025479
									372:leaf=0.010473473
								274:[f69<0.898275852] yes=373,no=374,missing=373
									373:leaf=-0.074011907
									374:leaf=-0.0241608378
						116:[f47<0.00341694942] yes=193,no=194,missing=193
							193:leaf=0.071082063
							194:[f35<4.77787542] yes=275,no=276,missing=275
								275:leaf=-0.0697335675
								276:leaf=0.00952192489
				30:[f52<0.5] yes=61,no=62,missing=61
					61:[f13<3.5] yes=117,no=118,missing=117
						117:[f39<374.830017] yes=195,no=196,missing=195
							195:leaf=0.0728396773
							196:[f39<376.259277] yes=277,no=278,missing=277
								277:leaf=-0.0452280082
								278:leaf=0.0605578534
						118:leaf=-0.0557587706
					62:[f27<0.5] yes=119,no=120,missing=119
						119:leaf=0.0576443598
						120:[f38<5.87768364] yes=197,no=198,missing=197
							197:[f28<3.5] yes=279,no=280,missing=279
								279:[f4<48896] yes=375,no=376,missing=375
									375:[f5<162816] yes=475,no=476,missing=475
										475:leaf=-0.0517274514
										476:leaf=0.0452452265
									376:[f301<0.5] yes=477,no=478,missing=477
										477:[f109<0.5] yes=573,no=574,missing=573
											573:leaf=-0.0701044425
											574:leaf=-0.0283323955
										478:[f62<0.785341859] yes=575,no=576,missing=575
											575:leaf=0.0222682916
											576:leaf=-0.0305813774
								280:[f70<0.121681422] yes=377,no=378,missing=377
									377:[f4<113152] yes=479,no=480,missing=479
										479:leaf=-0.0198058393
										480:leaf=0.0535548069
									378:leaf=-0.0537069887
							198:leaf=0.041402176
booster[3]:
0:[f53<0.5] yes=1,no=2,missing=1
	1:[f11<7.5] yes=3,no=4,missing=3
		3:[f8<1.62830746e+09] yes=7,no=8,missing=7
			7:[f62<0.985777259] yes=15,no=16,missing=15
				15:[f23<8144] yes=31,no=32,missing=31
					31:[f8<265158656] yes=63,no=64,missing=63
						63:leaf=-0.0147737889
						64:leaf=-0.0521313883
					32:[f8<1.08475187e+09] yes=65,no=66,missing=65
						65:[f16<1.5] yes=119,no=120,missing=119
							119:[f36<0.0174687505] yes=205,no=206,missing=205
								205:[f4<102400] yes=309,no=310,missing=309
									309:leaf=0.0492835715
									310:leaf=-0.0110050337
								206:[f42<0.763997436] yes=311,no=312,missing=311
									311:[f42<0.759699047] yes=417,no=418,missing=417
										417:[f30<256] yes=505,no=506,missing=505
											505:leaf=0.00495552551
											506:leaf=0.064224638
										418:leaf=-0.0140575338
									312:leaf=0.0715539902
							120:[f37<5.92285252] yes=207,no=208,missing=207
								207:leaf=-0.00956017245
								208:leaf=0.0419083983
						66:[f36<0.441951841] yes=121,no=122,missing=121
							121:leaf=-0.0525449887
							122:[f69<0.418095469] yes=209,no=210,missing=209
								209:leaf=0.0619726442
								210:leaf=-0.00991240516
				16:[f196<0.5] yes=33,no=34,missing=33
					33:[f27<0.5] yes=67,no=68,missing=67
						67:leaf=0.0699248239
						68:[f38<2.41937518] yes=123,no=124,missing=123
							123:leaf=-0.0523620397
							124:leaf=-0.00840609614
					34:[f12<5] yes=69,no=70,missing=69
						69:leaf=0.0552877039
						70:leaf=-0.0651870519
			8:[f36<0.582654595] yes=17,no=18,missing=17
				17:[f118<0.5] yes=35,no=36,missing=35
					35:[f13<1.5] yes=71,no=72,missing=71
						71:leaf=-0.0712680668
						72:leaf=0.0101156924
					36:[f26<0.5] yes=73,no=74,missing=73
						73:[f156<0.5] yes=125,no=126,missing=125
							125:leaf=0.0593385063
							126:leaf=0.00691259233
						74:[f1<55.5] yes=127,no=128,missing=127
							127:leaf=0.0099264523
							128:leaf=-0.0603118055
				18:[f11<5.5] yes=37,no=38,missing=37
					37:[f42<1.02592039] yes=75,no=76,missing=75
						75:[f38<2.99255943] yes=129,no=130,missing=129
							129:leaf=0.00917435065
							130:leaf=-0.0521247573
						76:[f277<0.5] yes=131,no=132,missing=131
							131:leaf=0.0484603681
							132:leaf=0.00708926283
					38:leaf=0.0645668209
		4:[f62<0.784447432] yes=9,no=10,missing=9
			9:[f37<7.78986025] yes=19,no=20,missing=19
				19:[f277<0.5] yes=39,no=40,missing=39
					39:[f21<786432] yes=77,no=78,missing=77
						77:[f24<6144] yes=133,no=134,missing=133
							133:[f37<7.76437187] yes=211,no=212,missing=211
								211:[f8<2129920] yes=313,no=314,missing=313
									313:[f28<0.5] yes=419,no=420,missing=419
										419:leaf=0.0547183976
										420:[f0<5.5] yes=507,no=508,missing=507
											507:[f4<1472] yes=593,no=594,missing=593
												593:leaf=-0.0569617078
												594:leaf=0.0464258045
											508:[f0<6.5] yes=595,no=596,missing=595
												595:leaf=-0.0573096201
												596:leaf=-0.0703523085
									314:leaf=-0.0717095733
								212:leaf=-0.0226240419
							134:[f0<7] yes=213,no=214,missing=213
								213:leaf=-0.0482872017
								214:leaf=0.0484926514
						78:[f69<0.0450282991] yes=135,no=136,missing=135
							135:[f11<10.5] yes=215,no=216,missing=215
								215:[f5<1848] yes=315,no=316,missing=315
									315:[f42<0.963758707] yes=421,no=422,missing=421
										421:[f38<2.73502922] yes=509,no=510,missing=509
											509:[f42<0.729464293] yes=597,no=598,missing=597
												597:leaf=-0.010229785
												598:leaf=0.0590815283
											510:[f38<2.86790848] yes=599,no=600,missing=599
												599:leaf=-0.00662144599
												600:leaf=-0.0666461438
										422:[f8<136314880] yes=511,no=512,missing=511
											511:leaf=0.0636713803
											512:leaf=0.0141149331
									316:[f0<3.5] yes=423,no=424,missing=423
										423:[f14<0.5] yes=513,no=514,missing=513
											513:[f32<1109.33325] yes=601,no=602,missing=601
												601:leaf=0.0653436556
												602:leaf=-0.0688843727
											514:[f42<1.50588238] yes=603,no=604,missing=603
												603:leaf=0.0643249527
												604:leaf=0.0105142929
										424:[f8<269516800] yes=515,no=516,missing=515
											515:[f100<0.5] yes=605,no=606,missing=605
												605:leaf=0.0599830151
												606:leaf=-0.0411868319
											516:[f47<0.0564709008] yes=607,no=608,missing=607
												607:leaf=-0.0593791381
												608:leaf=0.0165245961
								216:[f38<5.73697519] yes=317,no=318,missing=317
									317:[f38<1.44652033] yes=425,no=426,missing=425
										425:[f36<1.17211115] yes=517,no=518,missing=517
											517:leaf=0.00732754637
											518:leaf=0.0551845618
										426:[f208<0.5] yes=519,no=520,missing=519
											519:[f36<5.25255013] yes=609,no=610,missing=609
												609:leaf=-0.0706901476
												610:leaf=-0.0150622353
											520:[f63<0.0491555482] yes=611,no=612,missing=611
												611:leaf=0.0498434305
												612:leaf=-0.00831894018
									318:[f30<6656] yes=427,no=428,missing=427
										427:leaf=0.0674349219
										428:[f17<2.5] yes=521,no=522,missing=521
											521:leaf=-0.00424467959
											522:leaf=-0.0596869402
							136:[f13<7.5] yes=217,no=218,missing=217
								217:[f42<1.03432202] yes=319,no=320,missing=319
									319:[f156<0.5] yes=429,no=430,missing=429
										429:[f35<0.0713511333] yes=523,no=524,missing=523
											523:[f95<0.5] yes=613,no=614,missing=613
												613:leaf=0.0628138632
												614:leaf=0.00638817111
											524:[f35<4.28649235] yes=615,no=616,missing=615
												615:leaf=-0.0461723097
												616:leaf=0.0375652798
										430:[f62<0.424440324] yes=525,no=526,missing=525
											525:[f159<0.5] yes=617,no=618,missing=617
												617:leaf=-0.0498373657
												618:leaf=0.0379684903
											526:[f17<2.5] yes=619,no=620,missing=619
												619:leaf=0.0691387802
												620:leaf=-0.00945840776
									320:leaf=0.0709946156
								218:[f27<0.5] yes=321,no=322,missing=321
									321:leaf=0.0406235605
									322:[f14<23] yes=431,no=432,missing=431
										431:leaf=-0.0704436228
										432:leaf=-0.0055439272
					40:[f21<655360] yes=79,no=80,missing=79
						79:leaf=-0.0683186352
						80:[f8<373587968] yes=137,no=138,missing=137
							137:leaf=0.0700089708
							138:[f37<6.65773964] yes=219,no=220,missing=219
								219:leaf=-0.0426090807
								220:leaf=0.0405816883
				20:[f17<2.5] yes=41,no=42,missing=41
					41:[f28<1.5] yes=81,no=82,missing=81
						81:[f4<6016] yes=139,no=140,missing=139
							139:leaf=0.0053950185
							140:[f149<0.5] yes=221,no=222,missing=221
								221:leaf=0.0704464838
								222:leaf=0.00690118643
						82:[f295<0.5] yes=141,no=142,missing=141
							141:leaf=-0.0664016679
							142:leaf=0.0451392084
					42:[f42<1.31533027] yes=83,no=84,missing=83
						83:[f47<0.000473263412] yes=143,no=144,missing=143
							143:leaf=-0.00565103162
							144:leaf=-0.0693925321
						84:leaf=0.0413571447
			10:[f13<4.5] yes=21,no=22,missing=21
				21:[f28<2.5] yes=43,no=44,missing=43
					43:[f8<438337536] yes=85,no=86,missing=85
						85:[f36<0.0666628331] yes=145,no=146,missing=145
							145:[f27<0.5] yes=223,no=224,missing=223
								223:[f31<35840] yes=323,no=324,missing=323
									323:leaf=0.00538808433
									324:leaf=0.0616753176
								224:[f37<6.6371789] yes=325,no=326,missing=325
									325:leaf=-0.053580422
									326:leaf=0.0169722605
							146:[f136<0.5] yes=225,no=226,missing=225
								225:[f37<6.44247723] yes=327,no=328,missing=327
									327:[f47<0.0087022651] yes=433,no=434,missing=433
										433:leaf=-0.012195929
										434:[f9<5.5] yes=527,no=528,missing=527
											527:leaf=0.0634121597
											528:[f47<0.0535714291] yes=621,no=622,missing=621
												621:leaf=-0.00991473626
												622:leaf=0.04926534
									328:leaf=0.069812119
								226:leaf=0.0124730449
						86:[f9<4.5] yes=147,no=148,missing=147
							147:[f5<43008] yes=227,no=228,missing=227
								227:leaf=0.0142026059
								228:leaf=-0.0683064014
							148:[f206<0.5] yes=229,no=230,missing=229
								229:[f17<2.5] yes=329,no=330,missing=329
									329:[f4<25344] yes=435,no=436,missing=435
										435:leaf=-0.00545083173
										436:leaf=0.0702181384
									330:[f38<4.48313427] yes=437,no=438,missing=437
										437:leaf=-0.0492794178
										438:leaf=0.0234813392
								230:[f86<0.5] yes=331,no=332,missing=331
									331:leaf=-0.0623741262
									332:leaf=0.0243164431
					44:[f89<0.5] yes=87,no=88,missing=87
						87:[f27<0.5] yes=149,no=150,missing=149
							149:leaf=0.0244142115
							150:leaf=-0.0707330555
						88:[f129<0.5] yes=151,no=152,missing=151
							151:[f9<5.5] yes=231,no=232,missing=231
								231:leaf=0.0438298844
								232:[f69<0.0235587582] yes=333,no=334,missing=333
									333:leaf=-0.063403517
									334:leaf=-0.00813683309
							152:[f237<0.5] yes=233,no=234,missing=233
								233:leaf=0.0644375905
								234:leaf=-0.015663011
				22:[f20<3072] yes=45,no=46,missing=45
					45:[f28<0.5] yes=89,no=90,missing=89
						89:[f9<5.5] yes=153,no=154,missing=153
							153:leaf=0.0431532003
							154:leaf=-0.0503306538
						90:leaf=-0.0713687912
					46:leaf=0.0547523052
	2:[f15<5.5] yes=5,no=6,missing=5
		5:[f17<2.5] yes=11,no=12,missing=11
			11:[f8<735412224] yes=23,no=24,missing=23
				23:[f28<0.5] yes=47,no=48,missing=47
					47:[f25<7671808] yes=91,no=92,missing=91
						91:[f27<0.5] yes=155,no=156,missing=155
							155:[f71<0.800000012] yes=235,no=236,missing=235
								235:[f70<0.595977068] yes=335,no=336,missing=335
									335:leaf=0.0712656081
									336:[f49<0.5] yes=439,no=440,missing=439
										439:[f37<6.77433681] yes=529,no=530,missing=529
											529:leaf=0.0222030673
											530:leaf=0.0680380687
										440:leaf=-0.048087135
								236:[f36<5.11118937] yes=337,no=338,missing=337
									337:leaf=0.0503528565
									338:leaf=-0.0266590044
							156:[f34<1622272] yes=237,no=238,missing=237
								237:[f70<0.0760314018] yes=339,no=340,missing=339
									339:[f181<0.5] yes=441,no=442,missing=441
										441:[f64<0.5] yes=531,no=532,missing=531
											531:leaf=0.0706314743
											532:[f37<5.84618664] yes=623,no=624,missing=623
												623:leaf=0.00354874018
												624:leaf=0.0671712086
										442:leaf=0.0075666504
									340:[f171<0.5] yes=443,no=444,missing=443
										443:[f14<0.5] yes=533,no=534,missing=533
											533:[f6<3891200] yes=625,no=626,missing=625
												625:leaf=0.069457002
												626:leaf=0.0218272768
											534:leaf=0.0109786363
										444:[f39<1.78429914] yes=535,no=536,missing=535
											535:[f133<0.5] yes=627,no=628,missing=627
												627:leaf=0.0146088349
												628:leaf=-0.0619264916
											536:leaf=0.068287544
								238:[f37<6.81091309] yes=341,no=342,missing=341
									341:[f246<0.5] yes=445,no=446,missing=445
										445:[f25<6144] yes=537,no=538,missing=537
											537:[f31<1824000] yes=629,no=630,missing=629
												629:leaf=-0.0505262502
												630:leaf=0.00103940116
											538:[f38<5.51315308] yes=631,no=632,missing=631
												631:leaf=0.0555866025
												632:leaf=-0.00426927488
										446:[f36<2.16389513] yes=539,no=540,missing=539
											539:leaf=0.0276749749
											540:leaf=-0.0581016876
									342:[f65<0.210353017] yes=447,no=448,missing=447
										447:[f70<0.188235298] yes=541,no=542,missing=541
											541:leaf=0.0701646805
											542:leaf=0.0223713368
										448:leaf=0.0222787522
						92:[f4<7643648] yes=157,no=158,missing=157
							157:[f255<0.5] yes=239,no=240,missing=239
								239:[f25<8445952] yes=343,no=344,missing=343
									343:[f4<2025472] yes=449,no=450,missing=449
										449:leaf=0.0431156531
										450:leaf=0.00449876022
									344:leaf=0.0694476441
								240:[f31<4743680] yes=345,no=346,missing=345
									345:[f42<4.07178354] yes=451,no=452,missing=451
										451:leaf=-0.0492433719
										452:leaf=-0.00898279529
									346:leaf=0.0516806543
							158:[f37<7.77889729] yes=241,no=242,missing=241
								241:[f38<2.70554209] yes=347,no=348,missing=347
									347:leaf=-0.00708808703
									348:leaf=-0.064323768
								242:[f42<3.521667] yes=349,no=350,missing=349
									349:leaf=0.058521755
									350:[f37<7.99987793] yes=453,no=454,missing=453
										453:leaf=0.00767050311
										454:leaf=-0.0573020168
					48:[f27<0.5] yes=93,no=94,missing=93
						93:[f20<768] yes=159,no=160,missing=159
							159:[f25<1134592] yes=243,no=244,missing=243
								243:[f40<99239.7031] yes=351,no=352,missing=351
									351:[f11<29.5] yes=455,no=456,missing=455
										455:[f5<3328] yes=543,no=544,missing=543
											543:[f39<65.2161102] yes=633,no=634,missing=633
												633:leaf=0.0191622712
												634:leaf=-0.0525420904
											544:leaf=0.0543918461
										456:leaf=0.0627224743
									352:[f37<3.33491445] yes=457,no=458,missing=457
										457:leaf=-0.055823531
										458:[f25<77824] yes=545,no=546,missing=545
											545:[f34<64000] yes=635,no=636,missing=635
												635:leaf=0.0466320403
												636:leaf=0.0698510334
											546:[f39<54.0209808] yes=637,no=638,missing=637
												637:leaf=0.0609277748
												638:leaf=0.0130336927
								244:[f50<0.5] yes=353,no=354,missing=353
									353:[f37<5.93837643] yes=459,no=460,missing=459
										459:[f40<26928536] yes=547,no=548,missing=547
											547:leaf=0.00911056343
											548:leaf=-0.0540374555
										460:leaf=0.0505753942
									354:leaf=-0.0673779175
							160:[f138<0.5] yes=245,no=246,missing=245
								245:[f233<0.5] yes=355,no=356,missing=355
									355:[f34<8679936] yes=461,no=462,missing=461
										461:[f36<0.0184007995] yes=549,no=550,missing=549
											549:[f0<3.5] yes=639,no=640,missing=639
												639:leaf=-0.0248240009
												640:leaf=0.0637482554
											550:[f2<232] yes=641,no=642,missing=641
												641:leaf=0.0702231899
												642:leaf=-0.0174716711
										462:[f29<0.5] yes=551,no=552,missing=551
											551:[f147<0.5] yes=643,no=644,missing=643
												643:leaf=0.00861620344
												644:leaf=-0.0581523962
											552:leaf=0.0602494664
									356:[f86<0.5] yes=463,no=464,missing=463
										463:leaf=0.0565096289
										464:leaf=-0.0521482937
								246:[f149<0.5] yes=357,no=358,missing=357
									357:leaf=0.057050474
									358:[f46<0.155612245] yes=465,no=466,missing=465
										465:[f38<6.00622082] yes=553,no=554,missing=553
											553:[f124<0.5] yes=645,no=646,missing=645
												645:leaf=-0.0679973587
												646:leaf=-0.0055100983
											554:leaf=0.0250833891
										466:leaf=0.0426423103
